1769 100
</s> 0.004003 0.004419 -0.003830 -0.003278 0.001367 0.003021 0.000941 0.000211 -0.003604 0.002218 -0.004356 0.001250 -0.000751 -0.000957 -0.003316 -0.001882 0.002579 0.003025 0.002969 0.001597 0.001545 -0.003803 -0.004096 0.004970 0.003801 0.003090 -0.000604 0.004016 -0.000495 0.000735 -0.000149 -0.002983 0.001312 -0.001337 -0.003825 0.004754 0.004379 -0.001095 -0.000226 0.000509 -0.003638 -0.004007 0.004555 0.000063 -0.002582 -0.003042 -0.003076 0.001697 0.000201 0.001331 -0.004214 -0.003808 -0.000130 0.001144 0.002550 -0.003170 0.004080 0.000927 0.001120 -0.000608 0.002986 -0.002288 -0.002097 0.002158 -0.000753 0.001031 0.001805 -0.004089 -0.001983 0.002914 0.004232 0.003932 -0.003047 -0.002108 -0.000909 0.002001 -0.003788 0.002998 0.002788 -0.001599 -0.001552 -0.002238 0.004229 0.003912 -0.001180 0.004215 0.004820 0.001815 0.004983 -0.003111 -0.001532 -0.002107 -0.002907 0.002815 0.001579 0.000425 -0.002194 0.001524 0.003059 0.000194 
， 1.923331 -0.135392 0.718227 -0.695799 -0.238706 -0.499306 2.586286 0.124189 -1.839772 -0.187748 -0.557021 0.851991 -1.539281 1.388964 -0.814136 0.196522 -0.276707 1.635581 1.079673 -2.725536 -1.313050 -0.970422 0.096094 -0.292745 0.602476 -1.486427 1.214976 0.544812 -1.698146 0.181547 -0.382098 1.399621 -2.219404 -0.750401 -0.124479 -0.263121 -0.013332 0.100441 -0.621203 1.023330 -1.939729 -0.669253 -0.802131 -2.238610 1.502288 -2.349905 -0.410848 -1.464805 0.561192 0.372494 1.254983 -0.514155 1.709336 0.026973 -0.113419 1.213840 -1.341909 0.546759 1.467719 0.828297 -1.262373 0.546487 -0.500171 1.668369 -1.959177 -2.048693 -0.796075 0.726591 -1.481895 -1.666234 2.821811 0.275815 -1.770960 -0.753217 0.220352 -1.323786 1.660534 0.041961 -0.118744 0.772595 1.462087 1.095901 0.496717 -0.501705 1.757866 -2.698783 -0.557503 -0.475712 -0.279355 -0.763210 2.364737 0.488012 1.018005 -0.127274 0.348693 -0.807171 0.232804 -0.018454 0.693223 -0.432338 
。 2.309220 -0.907822 0.504229 -0.051008 1.532279 1.025207 5.237179 -0.112744 0.615710 -1.891106 0.406736 -0.485227 -0.334254 1.096543 0.061652 -3.380579 -0.261397 0.870273 -0.288029 -2.364991 -2.072865 1.836321 1.571737 1.251032 1.112358 -0.008503 1.823833 -1.028228 -2.668549 0.446955 -0.206770 1.671032 0.346835 0.611387 0.094915 -0.608038 -1.131259 0.340692 -0.550962 0.426036 -2.818612 -0.952785 0.857676 -2.262853 -0.277466 -2.670862 2.213453 0.625353 -1.150501 2.392896 0.449340 -0.539714 0.343359 -0.760249 0.623860 0.467609 -1.704433 0.496989 2.177385 2.281193 -1.294527 -0.477655 -0.796820 -0.187768 -1.410615 -0.109589 -1.488454 -1.819498 -1.705369 0.797307 1.317084 1.102449 -2.042696 -1.045009 0.688518 -0.318580 1.828258 1.463135 -0.988433 2.521231 1.391705 0.521695 -0.028977 1.212463 -0.188208 -3.601284 -0.293882 -1.405909 0.805550 -1.354920 2.391931 -1.442072 -0.305677 -0.236110 1.197767 -1.664782 -0.450461 -1.642631 -1.293787 0.412362 
无 -0.088128 0.637289 1.070286 -0.639146 -4.223695 -3.396788 1.331006 0.415559 -3.183612 -0.357649 -1.168668 -0.332589 0.938174 -1.063815 -1.610333 2.049059 -0.381407 0.619763 2.137563 2.433076 -2.479926 1.484398 -1.039330 -0.372816 -0.560156 1.532166 2.565986 1.034125 0.686458 1.551730 -2.197542 1.097940 -0.406070 0.477525 -1.101323 3.444124 -0.950847 1.436909 -2.717918 2.382951 -0.045456 1.289045 -3.025642 3.747844 1.624911 0.037725 -2.921733 -1.913644 2.473004 -2.976102 5.160892 -2.768268 2.556823 0.159330 -0.340853 1.065604 -1.951786 -0.739625 1.233340 -0.312802 -0.956391 1.040019 -1.965198 0.906050 -1.654841 -2.627287 -2.546100 2.025558 -0.058533 -2.465545 2.851678 0.524799 -4.509370 -0.666842 -1.299296 -1.472959 1.159104 0.665192 1.437874 -0.327808 1.200464 -0.501273 -1.214600 0.154189 3.327750 -3.355316 0.191680 -0.401820 -1.895653 1.336223 -0.626951 0.759946 -0.821348 4.550985 -1.738058 -0.093539 3.811530 -1.755457 -1.670077 -2.363172 
、 1.978368 -1.689508 0.325988 -1.617321 0.869441 0.329876 0.161095 0.114690 -0.523298 -0.164918 -0.589189 0.902320 0.073826 2.187035 -0.185431 0.891403 -0.099440 0.912077 0.511705 -1.384959 -0.460062 -0.329749 1.533025 -2.101203 1.160309 -1.391044 1.916185 -1.722059 0.194547 -1.302534 -2.793924 0.959647 0.902628 -1.115654 -0.611613 0.548817 -3.634606 0.115016 -0.524739 0.959266 -0.207318 1.239814 -0.148979 0.107928 -0.880077 -3.863160 0.696648 0.150137 2.196604 0.666951 0.559846 1.070117 1.494364 -1.978661 -0.079696 2.205928 -3.472036 -0.909512 -0.324886 -0.463282 -1.069981 2.994414 -0.253551 -0.375178 0.342910 -1.530702 -0.054672 2.705457 0.277363 -2.256669 1.726272 -0.710183 -0.595015 0.371105 -1.464179 -1.096711 1.111199 -1.958381 0.947916 -0.120116 -0.938958 0.160888 -0.456948 0.178010 -0.123092 -2.401849 1.368767 0.113086 -0.080806 -0.349418 0.427301 1.280993 -0.378442 1.358386 -1.305712 0.644806 -1.136691 -1.058283 0.152963 -2.726674 
1 2.659955 2.247895 0.200836 1.322100 2.831726 2.574754 0.320004 -0.264355 1.706019 -2.239770 -3.182323 0.361343 -0.024919 -1.181287 -0.833719 -2.822646 0.694366 -3.345651 -5.303038 -0.953190 -0.818111 -2.081891 3.198429 0.304569 2.095896 1.439252 0.469219 2.265144 -2.820516 -1.449532 0.318941 -1.866988 0.507448 1.456931 -0.866975 1.935993 1.320019 1.939029 2.433747 -1.135607 0.765903 0.053228 -0.190102 3.466621 -1.944250 2.124137 0.587978 0.649932 -0.305231 1.101637 0.290145 0.316663 0.261752 3.039693 -1.506076 0.268841 2.050448 3.413034 -1.115536 2.342899 -0.472969 2.905761 -1.143360 2.146336 0.052857 2.699276 -0.325062 0.547999 -0.831389 1.364701 0.553290 1.104894 1.292770 1.432910 -0.050726 1.196012 0.754889 -0.411070 -0.916391 -0.817644 2.896205 -0.273148 1.890202 -0.485511 -0.950863 -0.097487 -2.549111 -1.655003 -1.662109 4.445105 1.502583 -1.303539 -0.581083 -1.090675 -0.567238 3.415330 -2.108068 -1.686474 -1.020578 0.475723 
0 1.951678 1.872663 -0.782361 3.531671 2.109209 3.164920 -1.147081 -0.391343 1.107905 -0.057569 -4.347159 0.701249 -0.025488 0.891722 -0.602339 -2.743471 -1.750839 -2.277934 -3.705573 -1.510957 0.042973 -1.127259 1.697921 1.061598 2.862471 -0.987324 1.006670 3.999554 -2.787940 -1.238789 1.480829 -1.693586 -0.940277 1.876534 0.080873 0.875733 2.583021 1.741055 3.382292 -0.167189 0.012821 0.801406 -1.354203 0.662671 -2.205232 1.802871 1.121281 0.292360 0.891521 1.271059 0.129510 0.735984 -2.033798 4.419231 -0.627775 1.452967 2.692770 3.872313 -1.411460 2.766228 -0.473485 2.294306 -0.184466 1.260362 0.628060 2.073426 -0.877771 0.589841 -1.690062 1.218169 0.412042 3.043827 0.960474 0.996307 -0.209717 2.183750 -0.725540 -1.405574 -1.582145 -1.504098 0.955228 -0.832265 3.153769 -0.708991 -1.815865 -0.101566 -1.727420 -2.182633 0.155809 5.371569 1.049537 -0.906860 -0.213864 -1.343060 -1.614733 3.832700 -1.220612 -2.390779 -0.143887 0.082806 
： 1.775673 2.302243 2.491481 0.185240 3.033661 3.490496 3.448129 0.770294 4.397085 -0.157058 -2.533984 -2.950309 3.140842 2.638462 -2.744136 -2.653331 -2.517333 -2.061395 -1.497901 -1.027348 -0.706699 0.691016 0.230546 2.506355 0.103142 1.010346 0.532559 -0.010484 0.865562 -2.893821 -0.392279 1.339761 0.182949 0.796759 -1.137703 1.791239 -0.689672 1.691952 1.513400 2.274378 2.125835 0.980952 1.078219 0.373196 -1.266014 -0.494593 1.733393 0.322781 2.150372 1.013302 -0.687850 -0.129662 -1.654508 2.737131 -3.245920 -2.363391 -1.226189 1.593292 0.126907 0.687553 -0.149597 2.155901 0.101269 0.965196 -0.524793 1.331264 -0.668495 0.211694 -0.682250 -0.715678 0.708083 0.923343 0.519957 0.781999 4.971832 0.132919 -0.458376 -1.014006 0.184592 -2.472660 0.208155 -1.005954 0.989096 3.069179 -4.974952 1.337617 0.581208 3.347144 0.029239 -1.516736 0.045349 -0.227654 0.946868 0.228145 -0.985316 3.417543 -3.493363 1.376443 -1.428473 2.970803 
及 1.909603 1.261992 3.274027 -1.831395 -1.707874 -0.759531 -0.054040 1.859423 -1.618273 -0.010838 -1.480825 -0.151990 0.659886 0.504891 4.391395 0.743577 0.679579 1.319863 3.186021 0.283007 -0.409582 -2.544446 0.181000 0.170442 -0.746554 -0.547356 0.242922 0.603721 -1.260727 0.198314 0.587188 2.630057 -3.630159 0.025914 -1.169124 1.358606 -0.218168 -3.385458 -3.921466 1.642446 0.205107 -0.904255 -0.924203 -1.250010 -0.059108 -1.430024 -1.112599 -1.541545 2.225187 1.061682 5.711244 -1.266264 3.165412 -4.643470 -3.423811 -2.478879 -1.883243 -0.547729 -1.243430 0.376168 -0.878472 1.979228 1.068405 -2.184812 1.257243 -0.850831 -0.080871 0.503831 1.221159 -0.435353 2.174790 0.542880 -3.983661 -3.093721 0.181844 -1.809528 4.845969 1.589128 -0.162093 -1.179110 -0.975315 0.485582 -3.691270 -1.693208 -0.831508 -3.620183 0.468449 1.464839 -1.773882 -2.960463 1.416660 -2.474854 1.579024 1.437847 -1.087002 0.132767 4.094087 -0.374409 0.817679 -0.183647 
2 3.205385 3.278126 -0.060535 1.504510 2.361238 3.264196 -0.190719 -1.537448 1.085033 -1.418709 -2.610851 2.133034 -0.530155 -1.460097 -2.033438 -1.510628 -0.881164 -2.984941 -4.055967 -1.371896 -0.973463 -1.816388 2.374445 0.006963 0.770569 0.184505 0.004492 1.777939 -0.532106 -1.487308 -0.801343 -2.414772 1.674494 2.501145 -0.064079 1.822943 2.479669 1.374141 2.234419 -1.415218 1.413641 -0.631327 -0.109242 2.860153 -3.153979 1.227476 0.869536 1.508426 0.386259 -0.081287 1.156367 -0.515633 -0.648931 3.202894 -0.878565 -0.654704 3.342784 4.664037 -0.594454 1.971405 -0.581295 3.714276 -0.565368 1.087786 -0.091656 3.291131 -0.428018 0.510746 0.715507 0.811806 -0.000584 0.254295 0.461861 1.511198 -0.562988 1.569479 1.458899 -0.347482 -0.843068 -0.884330 2.831579 -0.437129 1.719775 -0.669633 -1.527631 -0.750123 -2.958579 -1.760263 -0.500124 2.986547 0.917920 -0.018513 0.268302 -0.544997 -0.481749 4.203734 -2.489098 -0.835080 -1.319211 -0.090731 
痛 -3.617699 -1.215505 0.963219 -3.963459 -4.887855 -0.246579 -1.069360 -0.518050 -1.688872 -0.636909 -2.255615 1.320670 2.580130 -2.115164 -1.081310 2.255299 0.407620 3.545956 -0.784880 4.852314 1.842914 -2.383534 -1.756742 1.533584 -3.363138 -0.554321 -0.658121 -0.213986 -0.560673 -1.248003 -1.137073 -0.294957 -4.115853 -0.336153 -1.630205 1.840547 -2.345571 1.196016 -0.542670 -0.313353 -2.173329 -1.275401 0.921001 0.719939 0.395155 -0.870940 1.927566 3.372698 1.444927 0.201827 1.971422 -5.062153 0.398903 0.082601 -0.813129 0.230050 -3.366920 -2.562740 -2.075780 1.554364 -1.823977 1.302715 -1.940699 -2.495268 -5.342768 -4.420730 -1.030213 3.269892 -1.396565 -4.127250 5.903966 -4.761220 0.074904 -0.352596 -2.111660 3.157011 2.546988 -0.662797 1.731332 -1.139836 0.344225 3.696190 -1.017172 -0.339021 4.497570 -3.459382 2.043967 -4.924116 -2.124381 -1.704432 0.174185 -1.853664 1.450907 -0.005942 -1.369937 -0.279306 0.780064 0.562657 -1.097827 -1.300905 
性 -0.549993 -6.085904 -2.392833 0.688185 -0.211315 4.217796 0.848722 -1.525685 -1.927470 -1.290804 -1.575990 -0.380150 2.204248 -1.464064 3.139676 -1.457907 -0.376817 -2.309536 -1.003363 3.588925 -1.689449 -4.613443 0.565037 -0.735512 -1.721337 0.481391 2.672025 -2.366384 -2.751021 0.824223 2.102479 0.902958 -4.898677 0.008243 -0.925595 3.096605 0.695104 0.830884 -0.258687 0.198177 0.272006 2.433023 -2.362183 -1.989420 -3.569588 -0.998766 -0.069423 -0.183269 2.689011 0.461332 -0.711777 -3.812952 -0.483731 -3.555813 2.253008 1.750127 -0.262726 -0.258402 3.811320 1.355121 1.271636 0.862013 1.983513 0.005046 0.797510 0.960021 -0.998047 1.189620 6.479488 -1.899635 0.541195 0.096249 -0.018389 3.370275 1.416628 -1.178766 0.581534 7.626845 1.340583 0.309525 2.552578 -0.312329 -1.198696 -0.239457 0.230459 -0.810203 1.104552 -0.781630 -0.627906 0.183362 -1.970697 0.933174 -0.542740 -1.264110 -0.259264 -3.684287 -5.233585 -0.388819 1.325412 2.995359 
双 -1.903687 -1.144871 0.148089 -3.091899 -0.585266 -3.339196 -1.741015 -2.194690 -0.682841 0.119507 -0.425815 -3.521251 5.566414 -0.264288 1.898220 -2.839748 -2.222786 -1.808594 -1.374322 -0.671722 -2.279640 -2.503409 -2.790819 0.627130 4.382270 -2.100229 1.682802 3.242817 -0.829019 0.864800 -0.430135 3.027672 0.386277 0.929292 1.782177 3.462977 -0.143678 -3.472441 -1.224064 1.593522 2.727113 6.153185 -1.233887 -2.878452 3.306658 0.666117 -0.264209 3.172923 -2.382106 -3.227819 1.519778 -3.236548 2.555049 2.173572 -0.515368 -0.942520 1.087387 -3.461677 -0.576951 -1.657470 -0.396907 -3.308032 3.010386 0.572953 1.529744 -0.678242 1.562368 0.422467 0.471359 -4.476723 1.267047 1.484105 0.574839 3.171409 2.056216 -0.334484 -0.670614 0.957711 -0.159780 -0.403980 -1.651373 0.641277 2.539504 1.864380 2.809737 -3.779425 3.935439 1.565507 0.893979 3.680849 5.250300 -6.605873 1.338260 1.544794 5.334042 -3.982365 2.903161 2.075642 0.229110 -1.799432 
心 3.594820 3.650295 -1.767007 2.188289 1.864931 4.813843 0.007269 -1.796207 -0.147014 -2.410659 0.621977 -0.977638 -1.044198 0.342653 -0.790870 -0.561891 -4.693599 -0.675217 -0.576006 1.937250 -2.944616 -1.198488 -1.568520 -2.174027 -0.889322 2.352609 0.732093 -1.850091 -1.069081 -0.662784 2.941414 0.170490 -3.524101 0.473752 3.724571 0.063969 -1.499726 1.639478 -0.478373 2.029323 1.432631 0.894270 2.791814 1.679324 -1.085764 -3.171902 -2.286733 0.396881 -2.349037 -3.749655 3.593786 0.161700 4.576647 1.331360 -0.121918 3.848266 -0.040049 2.417392 1.869507 -0.975782 -1.347251 -2.123620 3.314023 -4.015672 -0.724144 -5.214650 0.337561 4.878900 2.326841 -4.343973 4.068161 0.997155 -0.046656 2.193643 0.169715 -0.047422 -1.128360 2.093495 -0.822713 2.862818 -2.096130 3.537570 0.072770 2.687885 1.600331 -0.176449 -4.447129 3.558316 1.253307 -0.812192 0.075897 1.745565 2.279912 -0.719819 2.876330 0.653938 0.191724 1.889819 1.941108 -2.862597 
常 -0.499940 0.902302 -0.918722 -1.499678 3.870840 -8.077472 2.263276 -2.133775 1.393011 -0.506669 0.674628 -2.212983 -1.650465 -0.765696 0.301771 2.015883 -4.305494 3.106758 0.278266 -2.209876 -1.675333 5.324294 -5.314469 -0.690074 2.114049 3.764994 1.413692 2.027993 2.407580 0.156487 -1.370910 2.061665 -3.413095 3.806265 -3.551491 -0.513415 1.575330 1.229687 -1.744407 0.888005 3.081134 -0.974684 1.669698 1.224568 -2.737655 -1.102222 -2.488087 2.084861 2.449164 -1.165292 1.184167 -4.283409 -3.275985 -2.530728 -2.142807 1.581096 -2.013432 -0.050704 2.019542 4.153914 -1.602929 6.360529 3.588065 1.582396 -0.811307 -0.491913 -2.346503 2.456137 -2.719523 -3.397551 -4.145370 2.539153 -3.006918 0.059881 1.200590 -2.711891 2.381172 4.952276 -2.250989 -1.944038 2.012377 -2.737725 -3.488314 3.763355 2.815867 0.999723 5.907609 0.888624 -0.492110 5.068007 1.455637 -1.433626 1.062672 -2.497052 -3.269817 0.331236 -4.261812 -0.017319 0.860288 3.370681 
未 -0.683297 3.350396 0.720153 0.519208 -2.961140 -2.985837 -2.933404 1.125484 -2.050792 -2.364575 -0.282338 -1.577618 -1.134724 5.992434 -3.611389 -2.172775 3.705731 3.860774 -2.853407 4.277365 -3.620132 -1.782512 -1.017148 -0.137806 -0.358983 5.952927 0.274273 -1.418026 -0.393226 3.478504 0.912240 1.470482 -3.145097 3.651083 -2.099536 -3.187258 1.507542 0.855886 -1.911786 0.557962 3.118662 2.648593 -4.616998 -2.116001 -5.820066 -4.311468 -2.597463 1.793783 -1.558682 -2.024891 1.464031 -2.133564 0.709983 -4.125675 -3.760922 0.277267 -3.207764 -1.335734 2.565643 3.144026 3.162147 -1.308233 -3.984753 2.682073 -0.197327 0.220136 -3.821190 3.996586 -0.746801 -3.907326 0.144760 -6.468240 1.572063 -2.646612 -1.853730 -0.837624 -1.677339 2.998265 -1.853628 2.322286 2.854180 -1.202458 2.748003 0.254242 1.258186 -3.186218 0.867102 0.428572 0.443492 -1.138850 0.703263 -0.282649 2.955255 6.492570 -3.700149 2.376693 2.129483 -0.729972 -1.739650 3.787613 
m 3.877692 0.646087 0.392472 0.247710 0.108574 2.215569 1.575970 3.396665 0.779286 -0.448830 -2.447866 -1.977265 2.811217 1.245640 -0.748100 -1.974729 -2.272216 -0.138623 -1.612533 -4.727672 3.302732 -0.779240 -1.181361 1.008912 1.943369 -3.476754 0.528567 3.456698 -2.594509 1.277395 1.335285 0.568936 -3.254346 1.377018 2.559866 2.152267 1.116205 0.493105 5.696301 -0.757691 -0.411772 1.323557 -0.740918 -1.012272 0.593443 1.894915 0.897941 -5.032938 2.644480 -1.120590 -2.095940 -0.990363 -0.756880 3.189400 -2.258850 2.244812 1.316650 -1.038024 -1.972796 2.519744 4.995477 0.161987 -1.088070 0.429324 0.437253 2.827762 2.253812 -0.375022 -2.149405 -2.828377 -0.144491 1.395104 2.239151 -0.835613 0.978613 -1.081209 1.096869 0.065920 -3.673786 -0.585612 3.583296 -0.751018 3.041237 1.937331 0.400268 3.280738 1.032411 -0.737047 -1.426777 3.774430 -0.607415 0.685834 0.610850 -0.407274 -2.996086 0.738743 -0.423740 -1.777954 -1.092653 0.181390 
院 1.992437 -0.841923 -2.363175 1.605911 -1.690271 1.614965 -0.723068 0.318614 6.357300 -0.328313 4.371963 -0.179809 -0.458732 4.624133 1.876962 -3.266208 3.405811 3.620164 -2.566384 -1.179923 -1.122865 0.925160 3.591549 -1.228977 0.105038 2.334985 -1.895945 0.710975 -0.247337 -1.456344 -0.495968 -1.378603 0.697431 -2.880728 -1.765598 1.804490 -2.305953 0.713196 -2.474858 -1.773849 4.878781 -0.057820 1.145129 0.024925 -3.676003 -2.334948 3.151542 5.341976 -0.720935 1.013356 0.039537 -0.991446 -2.535820 0.966330 -0.894253 -1.053830 4.917364 3.314407 2.043144 3.301032 2.049140 2.882903 0.983881 2.972956 -2.491780 0.342884 -1.473117 2.032257 -3.184464 3.256440 -2.486319 -0.915538 -0.844431 6.588694 4.769720 -0.984804 1.844033 -1.980474 -0.212736 4.306123 -1.346328 2.772544 -0.275353 -3.199040 -3.595614 1.961383 -3.590301 1.631316 4.016005 0.026104 -4.198951 -2.155058 -5.271031 -2.570941 0.911153 -1.394896 1.805370 -3.176439 -1.458986 -1.038640 
病 -1.004968 -5.405363 -0.472878 2.884795 -0.401589 5.595709 1.368237 -2.650026 1.078893 -0.377182 3.111848 -1.563575 -1.112002 -3.397479 3.692977 -0.790691 3.130909 -0.008220 -3.745754 -4.342498 -2.289279 -0.541184 0.297193 0.550290 0.714683 1.631793 0.310293 0.640392 2.952902 0.018472 -0.210986 -1.323588 -1.813770 2.346879 5.114516 -0.101817 -0.608888 -3.156737 -3.558669 -0.529615 3.401167 3.190113 1.847325 -0.126907 -0.058215 -4.833377 1.388860 0.849356 -1.304149 0.952708 -0.523465 2.184164 -3.664218 -3.830884 -0.904967 -2.163292 -0.852569 2.435500 0.662358 -1.092699 -0.173018 2.884575 -3.956490 1.946103 1.403853 -3.024949 0.392842 1.345945 -4.832960 1.184665 1.814153 1.971513 2.239164 2.163971 1.299504 -0.231658 1.214484 4.470613 0.683296 0.172820 2.035607 -2.443599 -1.595325 -2.512024 3.306737 -2.958970 1.523535 2.408372 3.030880 -2.778603 -0.177676 -0.916930 -1.282028 2.614156 -5.046564 2.581775 3.044106 -0.542952 -3.130100 -1.948552 
查 0.604451 2.083588 -2.172611 -2.225548 2.954061 3.364235 2.161067 -0.259483 3.903095 -3.458297 -0.002580 -2.474343 0.413301 -0.704170 -3.312431 -4.597340 -1.053010 -0.285917 0.863776 -4.358011 -3.215608 -0.856390 1.003947 3.140765 -3.090708 0.780640 -5.683563 -0.765867 1.570817 -0.685765 -3.822851 1.257532 0.552626 -4.171797 -4.996790 1.800059 -1.586249 -1.783970 -2.647985 1.596124 1.460943 1.901137 2.738608 1.385083 -4.202199 1.104011 -0.211982 -1.143583 3.106317 2.696991 1.706934 3.227013 1.222206 4.274744 -0.248703 1.828443 -2.014739 1.688516 1.098600 1.157802 -2.736842 -3.951295 3.669983 3.086121 -0.468135 -0.825618 -1.545444 1.829922 0.522538 1.526838 -1.901530 -3.109798 3.559828 -0.485266 -1.707543 -1.517627 2.368404 0.270407 1.493930 1.107513 -0.047492 -6.730457 4.407948 2.968758 0.075100 -3.041460 4.001901 -1.532225 0.771394 2.020213 -7.629889 -2.552644 -6.119700 3.076858 0.140085 -5.138318 -1.006951 -0.255615 -1.250760 1.441162 
. 2.424653 0.255347 0.793563 -1.072358 -0.007710 -0.188273 2.233861 -0.769035 2.171385 -0.997000 2.320513 -0.737927 0.294689 3.141825 0.369391 -3.342064 -2.350970 -1.144428 0.966943 -2.733466 0.837751 1.357920 0.236019 -1.991951 0.553549 -0.013607 0.530071 -0.662092 -0.832066 -2.645618 -0.549750 0.178253 1.580082 0.653257 0.237023 -0.066719 -1.473657 -1.146386 1.921832 0.127388 0.663377 0.052576 3.330391 -0.861563 -3.170718 -0.322619 2.997289 0.323840 1.935910 1.032538 -1.806710 3.309808 1.921449 0.711255 -3.564339 0.933051 -3.029023 1.925022 -1.575926 -1.163912 0.276625 3.652922 -1.020728 0.070748 0.726457 0.958072 1.303657 -0.662077 2.101631 -2.531305 -0.909291 2.264122 0.430522 0.321768 1.850567 0.243489 -0.134583 -1.793281 -1.308532 -2.768627 -1.062695 -0.130246 3.173303 0.989371 -3.010486 -1.630655 0.047205 0.211724 0.941471 2.066059 -1.373896 3.121099 -0.452394 -0.024175 -0.341207 2.454113 -1.272289 0.117337 0.866592 2.865356 
3 2.003309 4.860737 0.630797 -0.487910 2.082756 4.430013 0.862256 0.468325 2.554932 -0.457065 -2.574380 1.017179 -0.082388 -0.653482 -1.801666 -2.257018 -1.316024 -3.060313 -3.234854 -1.774529 0.512416 -0.227608 0.520133 -0.232928 -0.311818 1.177420 0.781001 0.411620 0.403284 -1.009628 0.610434 -2.588562 1.215569 1.494777 2.741580 0.872636 -0.102109 0.077029 1.596297 0.202136 1.343037 -0.173824 0.809844 1.399778 -3.713136 0.542771 2.381422 4.168493 -2.406726 0.271580 1.635539 -1.061987 0.127915 3.246770 -0.128048 -3.117031 -1.311986 5.685946 0.010809 1.026055 -0.618054 4.250607 -1.810736 1.605158 2.343121 3.024775 -1.379632 0.969043 0.608847 0.171603 -2.912235 1.457634 -1.904798 0.647978 1.381587 1.638562 1.739963 0.811601 -1.395330 -0.370148 1.742877 -0.431816 -0.201054 -0.838380 -1.476257 0.262290 -3.363482 -2.529900 -0.376555 2.189109 1.200614 0.291457 -0.034959 -0.825053 0.406933 1.282912 -0.424474 -0.267959 0.374696 0.308955 
体 -3.284364 5.298033 0.930314 -0.763436 -4.287909 2.267701 -1.337320 -4.094672 -0.101801 -4.482431 2.252815 -1.580298 -0.271856 0.336398 -1.001276 0.782777 0.558694 2.264278 -3.316529 0.707563 1.470034 2.955486 1.314608 -0.511135 6.221576 -0.653847 3.311755 2.500144 1.040943 -0.466471 0.886627 -1.983119 3.550777 -1.315848 4.990624 -1.741499 -0.423186 -3.454539 2.902681 6.098493 -5.182306 2.336498 0.536563 -3.687413 -0.390785 -0.394137 1.203305 4.549840 0.568989 2.001627 0.638696 -0.819025 1.692626 1.076783 -1.563835 0.746566 -2.182118 -1.140452 3.578157 4.691526 2.584321 1.614432 -2.615024 3.010770 2.840457 -3.050110 1.329812 -1.179962 1.890169 -0.854904 -3.869829 -0.102410 -4.348483 2.156008 1.878483 3.551158 -3.381822 -0.466544 3.971327 0.493468 1.023620 2.136469 -4.565181 5.006896 -1.077179 -0.280291 -1.752162 1.163260 0.153297 2.053820 0.330445 0.368415 4.663474 -4.312298 -2.560947 -1.622321 2.791554 -3.039888 -1.053955 -1.637427 
音 -2.288654 -1.607133 -1.388700 1.555640 -2.990401 -3.302241 1.723491 4.722772 -4.907564 2.362091 1.084469 0.551913 2.582944 -0.701995 -1.736063 -2.106868 1.286999 1.591711 -2.253258 0.557404 -2.522991 -0.786724 -3.989393 4.198989 -0.935821 -0.925921 1.240921 2.734056 0.927089 5.267773 5.433560 5.266602 -5.245560 -2.957361 2.027002 1.966341 -0.491182 -4.555641 -0.917961 1.742086 3.763733 -3.630502 -4.965248 -3.573117 1.138789 -0.000155 -3.410805 -1.536319 -2.201992 -0.794532 1.988348 -5.467055 3.875392 0.396521 -0.826325 -1.939031 0.608094 1.475499 0.812741 -1.390516 -5.211314 0.786841 5.727645 0.116163 -0.566798 -5.656530 -2.521416 1.988924 3.493247 1.897840 2.043950 -0.421430 0.988810 -1.988060 -2.161536 2.711139 1.946690 -2.455908 -0.238056 0.028674 0.551751 -1.288329 -0.575577 -0.248816 0.023422 3.675905 1.340069 3.169156 -5.075102 -3.643300 -0.132581 -1.588119 4.267432 2.305612 0.698637 3.017659 1.253059 0.793253 2.555115 5.230551 
患 -3.738966 0.474521 0.782810 0.727073 0.114610 2.197290 6.859460 -1.287129 1.607234 1.762145 2.903264 -2.846737 -2.521841 1.577325 2.239735 -2.553961 -0.134494 0.568739 -4.922005 -2.974032 0.517228 -2.971095 6.247399 -1.790241 4.410515 -1.543587 -5.388587 -3.993820 2.646372 2.290215 -2.325288 2.200272 2.407358 5.618086 2.188294 0.972746 1.503431 1.236513 -0.443453 -3.078895 0.712930 -9.021164 -1.040442 -1.229665 0.588181 2.610888 1.480087 3.306180 3.200992 -1.372802 -3.210906 -1.784886 -2.634900 -3.742474 0.871157 4.094757 -2.716574 8.050334 0.669099 0.442625 -4.087607 -1.187469 1.982320 0.556111 1.493140 2.293921 -1.779962 1.927835 0.601621 0.154033 -0.896613 -2.628238 -3.108267 2.684942 3.015524 3.674901 -2.083153 3.729092 2.417799 -0.507652 -1.585516 1.170506 -1.630566 0.755921 2.063292 -2.480213 -1.901169 0.569207 2.967022 -2.399396 -1.319962 2.015618 1.138648 5.280241 -0.687677 0.644381 3.297508 2.824536 0.094918 -3.199889 
侧 -1.582312 -1.945068 0.001921 -5.138168 -3.822245 -1.967216 1.029764 5.726323 4.053740 -0.330677 -5.175737 3.226142 -2.227507 -1.203484 -3.235212 2.981225 0.108453 0.041015 -2.709366 1.958244 3.822707 1.164988 -0.292470 2.256869 -0.801524 2.019496 1.481179 0.618594 -2.343410 -0.961139 -2.451906 -1.025726 0.953172 1.317638 -1.328578 -5.065290 -0.879227 -2.762545 1.596988 -2.664135 0.693506 -3.429957 1.277497 -1.906300 0.201954 -2.150800 -1.166940 -2.193834 2.429910 -1.451784 -0.018811 -0.067330 3.015287 1.500057 -0.534541 -0.128714 -2.273179 1.255013 -0.970801 2.111901 1.727833 -2.144610 4.523348 -1.328656 0.895554 -2.921382 2.012509 3.426385 0.908565 1.600395 2.477791 -0.390476 -1.939768 -3.316578 -2.154350 0.542672 0.260878 1.697849 1.523860 1.097785 0.659321 -1.568259 -0.034018 -2.025408 0.009639 0.086197 2.317083 0.585070 2.562767 2.999915 0.398043 7.095655 -3.101002 1.417405 1.814454 -0.589927 -2.149485 1.034668 2.504237 1.907028 
正 -1.394360 7.733851 3.389815 1.576677 -8.052135 -1.342879 4.056332 0.647652 6.837483 -0.638372 -3.648980 2.863577 1.702367 -1.341800 -3.090587 -1.247718 0.873058 -5.276597 -3.465183 -1.368426 -0.968976 -2.159620 -0.898824 2.450931 1.559227 1.086896 0.658376 -0.692348 -1.929125 -0.835927 2.945698 4.665121 4.276182 -2.706707 -0.996960 6.341165 -1.789889 -0.649510 -1.218483 -0.573745 0.289472 3.814123 -4.351161 -4.259731 -1.803255 -3.662369 1.157955 -3.023436 0.966818 -0.626613 2.973006 3.186562 1.143067 -0.195621 4.588665 0.740697 -0.827725 -2.614597 -2.628539 -1.862376 1.223691 -2.139114 -3.422227 -1.293381 3.666909 -0.453357 1.784082 -4.785773 0.245708 -3.629339 0.836080 -3.001118 1.912969 -1.234366 -2.014671 1.836063 -3.126035 1.170443 3.797189 1.256394 0.700995 6.422117 0.882661 -1.818097 -0.851309 -1.152031 1.969057 0.734010 -1.089246 1.403957 0.319881 -1.738525 0.328657 1.059662 -0.763918 -0.731765 -1.009153 -0.072898 2.202952 -5.826218 
者 4.755772 -0.756088 -2.220921 3.163293 -3.005363 2.729339 -0.351399 -1.582722 1.932888 -2.532824 2.007243 0.337415 -1.488554 2.868403 -2.448354 0.267104 -0.541750 -6.726608 2.096557 -1.256027 0.330025 4.140409 -3.579397 -3.197903 -1.121581 -3.741846 3.684222 -0.865425 2.263597 -2.083840 2.944842 -6.308329 2.928359 -1.154178 -4.311752 -3.266476 -2.819816 -0.266484 1.383320 0.991344 -0.045806 5.357563 -0.471085 5.294755 -4.226917 -3.524948 1.501314 -4.487144 -6.320965 -0.112824 -1.480618 1.408192 -1.779277 -1.452365 -2.560188 -5.554718 3.867573 -5.163126 2.810650 -2.172745 0.180230 5.955133 -0.930237 2.607786 -1.707220 -4.448751 1.153681 -1.112121 -1.757292 3.450701 0.591203 -4.420050 -1.253041 3.753250 -3.820777 0.460084 3.676068 3.823475 -3.895173 0.877634 0.745002 -2.816337 0.122988 0.768029 -2.351226 -1.765007 3.018837 -1.871651 3.609440 -0.387504 0.555945 -6.224770 2.030939 -4.146761 1.930021 -3.563288 0.374023 -1.116865 -0.877338 4.110668 
血 1.056254 0.325551 3.304903 0.536858 2.852129 1.474314 0.503260 1.891472 1.589130 -1.260818 -0.923235 2.278852 3.608868 0.496041 -1.353524 0.817264 0.045732 1.980176 -1.974349 0.004658 -3.268227 0.333199 -0.442001 -4.211031 -0.248463 -3.668791 -1.720901 3.882123 1.479949 0.509591 -1.316486 0.507778 -4.459754 0.440185 5.787119 0.499271 -1.531811 4.393726 0.481997 0.017399 -1.332880 1.271918 2.454906 -0.006024 -0.451209 -0.862167 0.130856 0.134913 -3.421463 0.421336 -3.041895 0.809254 -0.106143 -4.772529 1.557914 2.314276 -0.737931 2.418593 -2.526627 0.596342 0.589520 3.903895 -3.992011 2.790029 -0.935650 2.163334 4.736097 -0.629682 0.029249 2.515175 2.245681 -0.765048 -0.766683 1.469975 -1.356330 1.734704 -4.671918 -0.910038 -1.474288 5.093601 -1.804421 0.319178 1.231214 -4.528697 -2.261456 0.609364 3.327923 0.465628 -3.246597 2.431586 -0.242605 -1.251199 -0.853594 -0.030752 0.239514 -0.151306 4.031499 2.863758 0.357230 1.663496 
头 2.278135 1.450169 1.201483 -2.452850 2.666818 -2.873566 -0.158734 -0.113595 0.130746 0.058282 -4.769681 -5.056216 1.002122 2.729082 1.251658 4.156515 3.630705 -0.480502 -1.777070 1.340235 0.087104 0.101408 -0.974781 0.808212 2.321340 -1.305408 2.740022 -0.733508 -0.043324 0.948411 0.425813 -2.467601 3.808034 -3.492162 -2.323900 0.967904 0.569596 1.072669 0.702932 2.495441 0.980254 1.522691 -0.173141 1.275732 -0.715291 -3.325696 2.751524 -2.562684 4.481101 -4.056580 0.534692 -2.712670 2.141940 2.835876 0.270666 2.388261 -0.487582 1.370838 3.637797 1.667371 -3.397877 -1.927040 -2.907758 3.026022 3.394083 -1.590266 -1.160745 0.368945 -3.429394 0.347569 2.381170 -1.862113 -2.491925 0.629809 -1.937094 -0.962314 -1.627205 -1.270299 2.535039 3.102089 -3.213276 -3.334142 -3.481085 -2.426392 0.594008 2.257039 -1.121208 -2.175538 1.156186 1.681298 0.825317 1.266002 -2.210764 2.104782 4.928990 -4.137114 -1.548709 1.326364 -2.387052 -3.547179 
6 0.026777 3.383672 -2.377088 2.258944 2.732391 2.492968 2.039782 -1.695245 3.291685 -0.700268 -2.768829 1.273074 -0.708859 0.831677 -0.826508 -1.150124 -1.417013 -2.674598 -2.284249 -0.208815 -0.212935 -2.269387 2.046092 0.844151 -0.252133 1.466652 -0.589888 1.490022 -2.601024 -1.552508 0.516817 -2.749527 3.025411 1.444180 0.929009 1.964785 1.516335 0.203541 2.134257 0.529627 0.102532 1.865080 0.951235 0.390840 -4.610547 0.756004 -0.087893 2.900527 -1.218492 1.417307 1.735819 -0.413128 -0.692361 4.155062 -1.808158 -0.381473 2.215321 5.548448 -0.104020 2.963522 -1.777154 3.638295 -1.331589 1.749220 1.263136 3.218277 -3.039533 1.571028 -0.937351 0.866330 -0.163245 0.959497 -0.435999 1.797118 1.469803 0.692262 0.231967 -2.592557 -1.417990 -1.040944 -0.226521 -0.708770 1.705419 -0.310370 -2.244940 -2.766601 -2.941641 -1.211485 0.376844 1.528075 1.795371 -2.168179 2.447964 -1.418783 -0.498246 3.468240 -1.138077 -1.740670 -0.416466 1.559847 
压 2.125304 1.162010 -1.989936 0.532507 1.395411 -2.987860 -1.878565 -1.961051 0.744313 0.908913 -2.815911 2.917992 2.584562 0.880511 4.965659 1.767645 4.077409 -0.647868 -1.671608 -1.984118 -2.052142 -2.110920 -0.210051 0.406892 -3.460383 -0.198891 1.624932 -2.234491 -2.535037 0.502732 -1.452826 -0.175816 -2.330887 0.805691 3.119546 -5.748123 3.253455 0.166042 3.376274 -1.647766 0.371165 1.366465 -3.194036 -0.142797 1.854267 -0.997295 2.092163 -5.384984 1.010171 0.058227 -2.899958 2.687049 4.029843 -2.976787 -0.361556 -2.456476 2.316868 -1.174950 0.780780 -2.952112 -1.628404 0.429912 5.284728 0.228025 2.013375 -2.053996 0.196159 4.051486 -0.470322 -5.039343 -0.399247 3.233395 0.902433 -6.287870 -2.855663 -2.638858 -0.093123 1.204929 2.561024 -0.163346 2.591622 -4.252100 -3.833294 -1.570919 -1.815575 0.202616 -4.036487 1.807219 -2.264403 2.028929 -0.757180 -3.058940 2.756291 6.018543 -3.050383 -3.911515 -1.022247 1.273600 1.049369 -1.824316 
腹 -1.387544 2.659104 -0.586450 0.216685 -2.833614 -0.854083 -2.994887 -4.059937 -4.062847 -0.058325 -5.192241 -4.676280 3.530811 1.332768 3.380279 0.485546 -1.531598 3.165985 -2.546871 0.742631 -1.613631 -0.351428 0.159047 -0.236646 -6.348673 0.830066 -2.462641 0.322060 1.990263 3.693398 0.784196 4.823196 0.833807 -1.800226 -1.388645 -0.052027 2.759357 -0.536967 0.231140 0.761232 -0.682602 0.463400 1.079197 -1.054469 -0.688728 -2.937366 0.600322 -0.313057 -2.419372 1.195490 3.204918 -2.508291 4.304317 -1.983282 0.834444 0.407587 -2.849906 -4.820203 5.722117 -3.479269 -5.554501 0.942371 0.106779 -4.038422 1.503479 -1.250987 -1.277108 1.807553 -2.892707 -2.128662 -0.181365 -0.748041 -3.605169 0.203416 -0.609880 -0.877182 3.733682 -1.101692 -3.658981 -0.984822 1.283016 1.084282 1.748980 -0.035435 0.894168 1.246114 -0.683299 -0.200713 -4.566749 1.555165 0.920069 -1.578140 3.578389 1.242967 -4.076209 0.937530 0.311471 4.016883 -0.083856 -1.746292 
诊 3.576828 -0.503120 -2.559521 2.349066 -2.903249 3.623543 2.391020 -1.522179 1.127608 1.823769 2.332106 3.322754 -2.224246 0.235620 1.177606 -3.852722 3.214637 0.767757 -2.616018 5.591863 -4.183814 1.345395 -0.591288 1.530598 -2.042364 2.269942 -3.682935 4.812206 2.130985 -0.487219 1.027924 4.225770 -1.603761 -0.415115 0.086065 -2.056859 -0.279158 2.125230 1.379672 0.936259 -2.082836 0.987191 4.085789 -1.394242 1.783167 1.717443 3.386717 1.926032 -0.604690 2.053798 2.074699 -1.554675 0.692256 -1.825764 -0.917923 -1.235922 -0.692057 2.603778 2.264430 2.678542 1.507762 -0.669831 -1.451454 -1.215899 -2.368177 4.278603 1.945687 5.566385 -3.970414 1.358014 3.287821 -0.079801 2.823467 5.319945 2.266805 -5.889626 0.286622 2.035519 0.122007 1.414339 0.634544 -2.473615 -0.960026 3.566597 -2.421861 -0.106551 2.579070 2.775549 -2.566974 -4.117998 -3.696917 1.852036 0.316931 1.240267 -2.186080 -2.616252 -5.215795 -1.411866 1.088319 -1.460525 
后 1.205288 -0.772123 2.771452 -1.272891 -1.702658 1.729827 -0.722305 0.420165 0.852631 -1.196924 3.406663 -1.815872 -2.117049 0.057680 -0.609690 2.358755 1.112704 0.275122 0.882742 3.815279 -2.721039 -1.093600 2.211308 -2.737897 -3.261735 -2.887122 -0.946752 -3.377675 0.749775 1.625019 -4.136113 -0.624166 -2.003393 1.422321 -0.015988 -1.457452 0.370529 3.081510 -1.381260 0.258975 2.574146 -0.606845 2.372172 0.249344 2.163777 2.516168 2.403893 0.796349 -0.767270 -1.621449 -1.525628 0.955083 -3.948624 3.517875 -0.084213 0.690641 1.763726 -0.224589 2.440890 1.048989 -1.428236 2.141597 -3.758253 1.850551 1.973873 0.852863 -3.052815 -2.443623 -0.956695 1.499838 1.967513 -1.166793 -2.215721 0.529755 1.027192 1.117269 3.039776 -0.791347 2.396955 -3.766062 0.538805 0.219026 0.728584 3.366994 -2.195238 -1.913656 -0.663696 4.235592 3.610380 -3.064618 0.721563 -0.977183 -2.249661 0.191738 0.575529 -4.126100 -0.845065 -0.805049 -4.193499 -1.668795 
部 0.556986 -1.032544 -3.507120 -3.173470 -0.687475 -3.794638 -1.908597 2.961955 -0.242018 -0.027913 2.322351 1.175019 1.965255 -0.494168 -3.555047 4.011534 0.204471 -0.263054 -0.349553 6.186987 2.615071 -3.129980 -0.646115 3.387526 -1.797099 -1.762332 0.602736 0.162055 -0.271581 -4.439986 1.353537 0.180781 -0.912989 1.582493 -2.683635 -1.641714 -0.683800 -1.364411 1.435010 0.367732 -4.872833 -3.338634 0.928000 1.472626 0.526734 3.021339 2.721350 -0.539075 2.349011 -2.059450 1.299436 -0.985302 3.071958 1.030620 0.578982 0.405173 -2.892053 1.725397 -2.700272 5.602363 1.164794 0.341522 -1.268516 -2.319595 -2.373524 -1.627169 -1.759007 1.263016 0.634707 -4.644368 0.147023 -1.467644 -1.554976 -1.588916 -1.094134 0.216672 1.843418 1.813426 7.210440 2.510962 -0.097521 3.169286 2.370796 -1.968230 0.055011 -1.506465 2.650792 -0.994379 -1.596025 -2.755853 -0.032073 -3.855154 -4.100216 1.208827 -0.851121 0.901775 -2.738895 7.789710 -1.807651 -0.828427 
- -0.083331 2.728820 3.274520 2.532482 -2.009610 0.216984 1.884795 -0.642071 -0.191736 -4.578989 -0.402137 -0.659702 4.306056 2.153087 2.115836 -3.073854 -3.809262 -0.927284 -3.263469 -0.255525 -2.350692 -0.642960 4.317098 -2.389190 4.643238 1.377984 1.321445 -1.613250 -2.688658 -3.198652 0.394020 -4.054389 0.513989 0.782271 -4.485933 0.471714 -0.936355 0.021421 4.141125 -3.295703 3.718749 1.469391 6.783758 -0.149983 -2.261366 0.302287 0.590027 -1.820815 4.607759 0.256228 -0.945450 2.788532 1.858718 3.822509 -2.761842 3.578338 5.426562 3.622393 -3.684144 2.062115 -1.327114 0.395478 2.394900 -2.088007 3.970509 0.585487 3.421607 2.075378 -2.787358 2.815584 3.171674 -0.512759 4.386087 2.064332 2.403373 -2.450272 -1.690938 -5.690788 -1.036140 0.188355 4.140653 0.660280 3.078066 1.752559 -4.296338 -0.307621 -3.753262 2.804328 0.425620 2.504389 0.870902 -1.503322 -0.570150 -0.479255 -1.299090 1.556690 -2.959805 -6.771644 -2.966145 2.134373 
肢 -3.508457 2.140066 3.386048 1.841337 -0.828307 -5.026668 0.693701 1.797032 -2.955797 3.942727 -4.381894 5.025093 -1.243287 0.875148 -1.422646 3.332974 1.289894 -3.100496 4.212188 -2.924274 -0.197834 -0.339744 -3.873698 3.485472 -3.672062 -0.367452 -1.927195 -6.637058 -2.636254 1.673003 -1.435125 2.417626 1.626404 2.199546 -3.756104 4.980496 -0.157947 0.220031 -4.935143 -3.122182 4.020863 0.956130 4.746924 -3.322001 -6.829842 -1.849655 -3.163721 -3.123969 -3.049437 -1.885675 -3.060876 -0.784746 -0.426881 2.429574 3.441517 2.304635 -4.580770 -0.455019 -0.235803 5.341809 -3.770482 1.409565 1.532411 -2.088859 -1.736192 -3.715729 0.771293 -1.229794 -4.329926 -0.606503 2.230294 1.511100 -4.559087 2.670313 0.643169 7.404506 -1.771074 0.872762 -3.217320 -2.012445 -1.113201 -1.472100 1.513183 -2.541819 -0.965651 1.592703 0.565295 -0.226506 -5.041115 -0.360159 2.388493 1.827707 -6.638801 1.092603 -2.028119 -6.263669 -1.542883 0.979738 -0.681521 0.212310 
5 1.120416 3.022310 -0.450136 -0.126138 2.120140 2.109710 0.496433 -1.762445 2.970575 -1.078148 -3.045232 1.445912 -0.627584 -2.215441 -1.051541 -1.766963 0.111954 -2.781858 -2.658512 -0.703754 -0.416699 -0.541596 1.295452 0.989303 0.906628 0.913754 -0.429535 3.204988 -1.102397 -1.636083 1.799858 -1.195983 0.627277 1.069758 0.163407 0.978261 2.214014 1.064859 2.987858 -1.941436 0.353304 0.050636 -1.559633 0.902419 -3.267576 1.738683 0.995773 1.185647 0.460401 -0.905530 1.220605 -0.471453 -0.770236 2.739662 -1.264724 -1.224809 3.109764 4.134589 -0.613681 3.082427 -0.241573 2.864385 -1.279232 1.089188 0.820574 2.793774 -0.633921 0.193559 0.621959 -0.447025 -1.631406 1.911513 -0.091168 0.932367 0.031733 2.401322 0.319387 1.370555 -1.828309 -1.225915 0.513395 -1.242666 1.604714 -0.510142 -1.795505 -1.216781 -2.561484 -2.404658 0.165390 1.518660 2.738192 -1.359483 -0.591121 -0.142550 0.191197 2.268915 -0.416487 -0.447880 -0.609598 0.846236 
次 1.022095 0.792139 -4.303650 0.172724 4.364431 0.467275 1.267960 2.295544 3.655388 -6.058888 -0.859131 -0.193283 -0.701420 4.816180 0.105723 -3.209496 -1.174556 -3.352441 1.113453 0.390219 -2.857946 -2.989599 -0.869255 -0.435005 -0.930557 0.137588 2.600914 2.471673 0.266425 0.564255 -2.172502 -0.550652 -5.143267 3.269012 -0.712995 1.437494 3.057723 -5.280960 1.804521 3.027782 -0.721301 0.583936 -2.557795 3.286508 0.220093 1.513898 -1.486528 -1.874650 2.735134 7.729450 1.544471 -5.587999 -2.392701 -0.099594 2.603036 -0.262892 1.968614 2.893399 -4.203361 4.909910 1.265625 0.599044 -1.153181 0.691126 1.034331 -0.188746 1.619138 1.529353 0.460332 -3.205065 -0.773672 3.466096 2.087118 0.332167 0.410836 -2.600862 -1.140969 -1.743002 -3.229820 -0.373956 1.862222 1.989781 5.093656 -1.436168 4.465042 3.904637 -4.193439 -3.354319 0.194439 -0.012577 -1.185499 -0.726741 3.957298 -3.103148 -2.177182 3.591028 1.487858 -2.974804 -0.640950 -3.264543 
4 -0.323393 3.937209 0.187761 0.705671 1.816364 2.727545 1.726921 -1.522022 2.908005 -1.604820 -2.808753 1.826310 0.622475 -0.469112 -0.270502 -0.960271 -2.295764 -2.304513 -3.402313 -0.549970 -0.344204 -0.041804 0.110210 0.455845 -0.777174 1.716077 0.011592 1.219966 0.019436 -1.275285 0.890145 -1.484142 2.147732 1.216479 1.092757 0.629320 0.731317 0.171114 0.865662 0.059874 0.516480 1.038751 0.285637 -0.393811 -3.462126 0.783597 1.059699 2.132527 -0.796250 -0.326945 1.949269 -0.927637 0.210966 2.887575 -1.017886 -2.962777 1.823848 4.203510 0.366877 2.389933 -0.586593 3.421200 0.513789 0.763805 1.507048 3.432367 -1.237346 1.122418 1.407231 -0.246693 -2.448500 1.467535 -0.246251 1.731306 0.776037 1.213852 1.288262 1.841558 -1.216517 -0.653464 1.417827 -0.458024 0.183507 -0.201752 -2.506466 -1.688602 -2.569813 -0.907543 -0.111142 1.074835 1.996620 -0.270298 -0.086777 -0.333694 -0.210014 2.108382 0.062877 0.687590 0.390965 0.954609 
不 -1.413459 2.427044 4.666270 3.255177 -0.163738 2.578628 -1.708479 1.136472 1.654521 -1.893432 -2.357094 -1.050474 0.955892 0.952947 0.320759 4.715182 -3.025071 -2.007163 2.215476 0.125451 -0.413438 -3.537992 -2.002749 1.073538 -1.700395 -1.689143 -1.731416 -0.770339 5.013654 2.466202 -0.925600 -0.546487 -3.434486 4.535606 -0.240104 3.401713 4.069926 -2.712618 -1.528362 1.422554 0.001280 -2.188595 -2.419422 0.315223 2.274417 -1.461617 -2.573198 2.561557 0.607653 2.473717 0.733591 4.346320 0.866152 0.666975 3.313551 -1.857762 -1.218099 1.129867 2.954267 -0.571106 2.953206 0.061925 -0.261003 2.503943 3.224283 -0.899701 2.209378 2.648233 -1.383674 -3.726884 1.486046 -1.279642 0.088865 1.785051 -3.295593 -4.431196 1.967903 -0.882280 1.620435 -0.485985 4.772467 1.170759 -4.902073 -0.010144 3.039496 -0.728743 -2.582669 2.455137 3.166190 -2.142601 2.000136 0.144227 -1.831955 -1.878747 4.104242 -0.126917 -0.041872 -0.270272 -0.128863 1.718212 
分 -1.693277 2.063167 -3.071371 0.164680 3.315985 -1.587036 3.710980 0.556375 -1.048238 -4.045317 -4.213698 -0.205499 2.529956 -0.714050 -0.442369 -4.525666 -4.083408 0.846763 -0.600435 -2.413087 -2.236260 -2.000878 -0.712939 1.937613 -0.537279 0.641521 -0.122783 3.971266 1.269465 -2.108833 4.317313 -2.588063 -3.843840 -0.876150 2.670312 3.067030 4.863144 -2.769494 -0.852004 -0.141878 4.179233 -1.510052 -0.263167 1.082724 3.349331 -1.358437 -5.403844 -1.292632 3.926923 -0.340834 1.193329 -0.034193 -0.858433 2.563325 -3.214705 3.628630 2.211445 0.108467 -3.398524 -1.837642 5.173379 0.363384 -2.161192 -1.231028 -1.029993 -0.746869 -2.667266 0.358104 -0.834567 -1.347862 0.833288 -0.455322 1.284181 1.346637 3.895731 3.913133 0.490559 -3.754900 -2.928081 -2.016402 0.063544 -5.794578 3.566384 -1.231858 -2.366227 -2.362689 -3.790406 -2.563870 1.649517 4.342574 -1.627931 0.177008 6.969535 -1.615109 -1.179308 -1.954522 2.527773 -4.622209 4.517088 0.796601 
入 -3.140311 2.523931 -0.328471 1.915475 -0.245521 7.734436 5.725508 0.491388 0.118468 5.077770 3.203087 -4.860152 -4.304403 2.908328 2.543235 0.721848 2.122078 -2.455988 -0.303366 1.949867 4.191314 0.184607 1.100153 0.942196 0.032327 -0.699906 -0.445912 -6.311876 3.469496 -2.764843 -0.422826 -2.106605 5.342181 -0.413484 2.028159 -0.933981 -0.854644 0.890459 3.400246 -3.575792 -4.419525 3.122242 5.368322 0.906703 -1.937056 3.194241 1.179235 1.537145 0.270926 1.681099 3.125983 -3.765155 -0.694559 -0.985925 2.090934 -2.467265 -2.556612 3.326247 -0.747576 -0.672613 -0.975253 1.333243 0.519336 0.051913 5.069198 -0.234227 2.761400 3.049256 4.727352 2.552610 -2.709594 1.660486 5.648853 1.714325 -1.002531 -5.186546 -0.611629 -1.388874 -0.672201 4.164619 0.779040 -3.824369 3.984072 2.226467 -0.449700 -2.840536 0.107795 -1.393275 -4.118872 7.276488 2.492933 0.893550 1.128149 -0.396101 2.130558 2.102171 -1.471789 -2.716747 -3.785243 5.593230 
动 -2.385125 -0.233326 4.247519 -0.650835 -1.951261 -7.527367 -3.076693 -1.256960 3.837210 2.268146 -1.532040 6.655213 2.395019 0.421350 -7.117496 2.940450 0.092422 -4.904156 0.631535 -1.212261 -1.266899 1.968089 -1.611331 2.021508 -1.098463 -5.124195 -4.035752 2.551637 5.330781 -1.327314 0.591386 -2.239510 0.888275 4.901482 4.041940 1.680391 -0.545092 -3.460450 -3.781742 0.173230 -3.251750 1.826883 2.931648 -1.334340 -3.102688 -1.810631 1.622533 -2.029012 6.211516 2.427320 -1.806555 1.315362 0.225211 -3.464876 -1.070092 0.571905 -3.290794 3.511407 2.762107 2.043103 -0.393594 -5.199499 -0.239225 0.760352 -1.774878 -0.602640 2.668060 1.534374 1.950420 1.379124 2.672531 -0.323735 -6.899792 2.475344 1.795429 1.708603 4.405408 -3.426238 0.173210 2.218236 -0.894927 2.513885 -0.148400 1.855330 5.892177 2.864062 0.106454 -1.007185 0.996904 0.417729 3.326613 -1.463504 4.493482 0.954713 -1.676681 -5.001727 -1.576141 -2.474830 -2.868800 0.659366 
肌 -1.214245 -2.473471 -0.172353 -0.840574 -3.664581 -6.826097 -0.054046 2.171028 1.604002 -0.098582 -0.642912 3.866327 3.501819 -6.431179 -0.489979 2.166391 0.304657 1.906845 1.340581 -3.233237 -2.375348 2.936997 0.432180 -0.949937 -0.636362 1.259669 -1.275149 -1.435286 -2.680840 -1.940138 0.946282 3.533432 7.019757 -2.660321 -0.260680 2.620710 1.816589 -2.334622 1.235487 -2.386817 -1.183003 1.983458 -1.560048 -1.658058 2.552857 -0.535797 -5.595633 -0.822777 -2.276291 -1.513861 -1.341895 -4.832075 -2.237788 -0.291316 0.584853 -2.559709 -0.822677 -0.574825 1.908244 2.059686 0.976087 -0.463455 2.767335 1.516207 1.251460 -3.127769 1.165562 1.649909 3.094696 -2.582711 -0.338170 2.780766 0.006757 -1.015696 -0.551971 2.343036 2.832586 0.593275 -1.926015 -0.394171 2.715734 -1.371171 3.929804 1.914905 3.684984 -1.416203 2.129106 1.971710 0.527756 3.867188 3.043680 -1.962992 -2.404042 3.575564 -4.141406 1.221739 -2.577294 -3.126169 0.338026 -3.337212 
8 1.736628 2.771124 -2.956835 1.394563 4.027230 3.668504 3.452769 -0.921892 1.949114 -2.342753 -3.845561 2.210567 -0.722266 0.589002 -0.558915 -2.892892 -0.613462 -3.341630 -2.260389 -0.409255 -0.670976 -1.593130 1.438648 2.413048 -1.101554 0.871795 -0.272400 4.120207 0.089070 -0.109130 2.304494 -1.865799 0.128914 2.518112 1.286710 2.847543 1.854539 0.522326 1.628297 0.591280 0.465005 0.082926 -2.199447 0.295793 -2.019109 2.097063 -1.289477 -0.242318 0.211446 0.700159 3.093787 0.797627 -1.077821 3.911802 -1.056404 -2.394784 1.640057 4.049126 -2.154491 1.548329 0.431335 2.080973 -2.120753 2.476181 -0.927449 2.752290 -2.347634 0.896506 -0.509276 -1.694069 -0.191169 2.526181 -0.612379 -0.654570 -0.445468 2.655796 -0.099217 -0.837542 -1.302408 -2.174979 -0.514856 -0.824005 2.867908 0.220162 -2.071020 -2.389297 -1.935790 -1.731587 -0.600168 3.677318 1.200458 -1.438751 1.202318 -0.991822 -2.239845 3.752750 0.906022 -1.739761 0.829123 -0.473333 
下 -1.173835 -0.023473 -2.247114 -1.161714 -2.861969 -3.172562 -1.065003 -2.755493 -1.683705 -1.536204 1.103718 6.277973 -0.363524 -3.516316 -2.336084 1.675856 1.370354 0.707552 -2.081669 6.525589 3.961193 5.556745 -0.931258 3.041782 2.902073 2.182858 3.117954 4.152444 -3.173348 0.936525 3.104289 -0.861373 -0.964467 -2.094524 -1.134707 -7.102705 3.515074 -0.935259 3.697013 -3.640448 -2.867552 -3.136372 -0.932048 -2.865279 -0.389838 -0.564912 -1.331220 1.533533 -0.123056 0.500591 -0.119480 -1.198330 2.007191 -1.117173 0.052680 -0.129154 -4.188760 0.358407 0.471546 2.813577 0.549418 -0.811265 6.613317 5.496906 2.038644 -5.986148 -0.877035 -0.475440 3.273262 0.207229 1.126854 -3.314682 -5.646486 -2.532245 -3.460331 2.708108 2.909333 0.208131 4.135718 -5.005390 2.656651 3.569983 -0.752842 -1.979351 -0.409756 -2.272951 1.898605 2.390837 -0.555196 -0.085789 1.258645 1.542927 0.287702 -0.520670 -1.120334 -2.789556 0.203868 -4.201498 1.222273 -1.952576 
于 -2.044383 -3.076675 -2.044545 2.067641 4.846249 2.299433 -7.630255 2.408191 -3.529875 -5.929739 3.001824 -2.851310 -1.616774 5.896016 -1.882279 -4.961887 -1.979335 -5.801798 -2.928223 -0.536685 -1.707725 -1.291123 7.378423 0.964936 0.646465 0.303626 0.275382 -2.470409 -2.703766 -3.140248 -2.627209 -3.967743 0.082822 -0.607749 1.114550 0.165937 4.360868 -0.380333 1.368780 -5.222779 -2.692381 2.945622 0.150200 4.396989 2.617997 -1.994457 -1.988382 2.651350 4.238327 -0.045641 -3.891395 -1.519938 -5.152106 0.516696 1.286386 1.601251 2.971278 1.770893 -1.179059 -0.344575 -4.632793 0.087580 -1.429502 3.858752 3.155424 0.866469 2.703429 0.190171 -0.029041 1.724754 0.438336 -0.735737 -2.624587 0.559103 2.027670 1.158765 1.855804 -1.189466 -1.909903 2.117726 1.132898 2.597719 0.889231 -2.376540 0.287291 -3.170679 -4.160007 2.460305 -3.266674 -0.806513 -0.641210 0.477671 -4.908770 -5.457081 2.795480 -3.312464 0.466679 -0.576238 -4.190257 2.546430 
左 -0.026330 1.202319 -0.121612 -2.775235 -0.584850 -4.604727 -2.876106 -1.202797 0.362474 -1.033070 -0.786968 -2.624102 4.674366 -0.911306 -0.846059 0.533416 -1.025035 0.592335 1.114824 1.354378 -0.902046 -4.192736 -3.075458 1.513350 3.709432 -3.664564 -1.816698 3.110919 0.321359 -2.234901 -1.747648 -0.950460 3.204033 5.975750 0.519236 1.769745 3.803282 -3.638319 -1.513125 1.819546 0.567899 3.716850 2.640860 0.398519 2.754160 -1.843278 1.539629 5.075491 0.358845 -3.336885 -1.113231 -0.817218 2.834740 -0.606868 1.917552 -0.602569 0.479935 -1.024795 1.675780 0.437224 -0.242365 -2.899929 -1.454445 0.756969 -1.379868 3.010471 -0.965116 1.565878 1.451704 -5.711486 2.425135 2.218250 2.233525 1.753500 1.657066 0.044502 2.103112 -1.069143 3.597731 -0.048127 -0.054769 -1.537488 2.344888 1.020944 0.179638 -1.407639 4.102355 -0.138552 -0.346430 -0.307330 3.072115 -5.484855 0.285943 0.487785 6.433315 -2.619253 -0.978705 2.587631 0.571200 -1.576306 
出 -3.654491 -2.470471 -0.763552 -0.311425 -0.600689 0.754227 2.067158 -4.285067 -0.115691 3.078894 -1.058519 -1.013722 -5.512955 -1.717892 -2.927461 -2.356756 2.075256 -4.105948 2.884901 2.237236 3.792847 -2.120155 3.186510 -0.879668 -0.805141 -2.773167 -0.918629 -6.835341 1.926649 -4.757699 0.709539 -0.846822 1.644475 3.549480 -4.875780 -1.574571 2.459499 -1.878282 0.006616 0.298691 1.808473 -3.842465 0.895400 2.510568 4.141507 0.110230 2.774391 0.391476 -2.741863 1.439678 0.643760 -0.844357 -1.605379 -0.704361 -3.792349 -2.784626 1.077163 1.865940 0.812751 -5.497487 -3.353738 -2.262045 1.850936 0.189930 2.999115 -1.379632 -1.849491 1.231969 -2.062588 6.195365 2.936551 0.078887 -1.114898 -1.982804 -0.385174 -1.482730 -0.496457 3.156098 1.959839 -1.612968 -1.652945 -4.275895 -0.503084 5.361264 3.732822 -3.584424 -1.122771 -4.740137 -3.104959 -0.116956 -3.270543 -1.798987 4.809774 -3.738396 1.701828 -4.215424 -3.511031 2.385482 -2.119544 -3.365314 
发 7.332724 -1.402307 1.467340 0.800633 0.761843 2.165057 -1.297360 -1.747043 -2.090510 -4.260905 -1.715727 0.519657 0.491070 -0.187688 -0.666197 2.408087 2.528312 0.167722 -2.818369 -1.122769 2.394218 0.728508 -1.949933 -0.493637 1.765011 -0.761790 -4.033697 1.588899 0.573942 -3.189942 -3.555049 -1.168521 -2.663333 -2.952030 -5.402384 2.985765 -3.256062 -0.519790 3.675408 4.173071 -3.059607 -3.738463 -0.957863 3.457402 -0.350257 5.782495 -3.132491 -2.871061 -2.127878 -0.911418 1.158051 -0.065408 -2.971098 1.348543 -3.869483 -3.795713 -1.025232 2.438558 1.604925 -4.776937 0.605148 -5.452093 -0.134466 -2.080453 3.172649 -0.856664 -0.543192 7.076738 -4.261813 0.757843 -2.848591 -0.598142 -2.156493 -3.480507 -1.281302 3.204862 1.114637 -1.475495 -2.567380 -1.105794 -3.743871 4.708657 -4.270781 2.126496 1.751196 -4.987950 -1.441789 -4.072330 -6.368410 2.536393 -0.002122 4.847355 -0.164539 -0.779736 4.447381 -4.037620 0.333217 2.742012 -2.024106 1.308428 
右 -0.153372 0.661862 -0.776621 -2.288637 -1.844137 -5.230946 -2.740214 -2.138538 0.264918 -0.234885 -0.977080 -3.589907 4.290203 0.043012 -0.588280 0.578914 -0.819792 0.630108 0.861617 1.252647 -0.809900 -4.091308 -1.957841 0.755699 4.027706 -3.641946 -2.257919 2.411944 -1.176548 -1.296082 -1.712551 -1.119199 3.339674 5.605108 -0.816813 1.804422 3.389223 -2.606568 -1.511533 1.406661 0.326692 4.559555 2.892899 0.152005 1.905776 0.456925 0.849241 5.757151 -0.223175 -2.450721 -0.679399 -1.918488 2.892470 -0.738674 0.891733 -2.026561 0.764590 -1.395509 1.248688 -0.672639 -0.679864 -2.604877 0.102494 -0.296593 -1.630714 2.091813 -2.179184 0.627084 2.077659 -5.199883 2.825310 2.616754 1.627492 2.016963 1.722625 1.531648 3.404643 -0.778501 3.335765 0.647449 0.638121 -0.176145 1.679559 0.370545 0.377090 -1.514348 4.772440 -0.225696 -0.530849 0.044158 3.517050 -5.369999 -0.111975 0.778423 6.390464 -2.146470 -0.571823 2.686872 0.452899 -2.185347 
可 2.894022 1.518931 0.632240 0.760976 -3.109483 -3.373231 -3.678962 1.269955 2.316287 -0.539611 -1.819845 1.159686 -1.472917 6.647093 -0.428480 -0.309356 -1.441155 1.419955 1.037167 -2.552776 0.975085 -2.674846 -2.235458 1.308680 0.789186 -0.940896 -0.207065 -1.527215 0.711207 4.242888 0.986104 -1.294705 -4.003493 0.542708 0.512698 1.059401 4.655759 -0.683035 -0.133231 -0.465198 0.199737 -2.817187 -2.163147 -2.453269 -3.452811 -1.757890 -1.236583 4.868152 2.637775 -3.787839 1.292989 0.366894 3.324886 -0.852531 -4.299063 -2.927898 -3.767826 -1.393407 4.026821 2.186017 1.590629 -1.907884 -3.777161 0.635512 -0.393658 -1.117132 2.888768 -1.160395 0.847539 -2.468435 0.261428 -2.006963 0.945120 -4.508977 -1.338037 2.751184 -1.651647 3.306791 2.351093 1.087312 0.764064 -0.591412 3.907640 1.050775 0.790250 -0.850429 3.676882 0.169389 -1.517853 -0.327950 -0.685999 0.248552 0.483662 -2.988786 -0.286422 1.852924 0.273163 -0.317015 -6.132222 3.556869 
治 -2.142672 -1.948886 1.048552 0.235096 3.891771 2.683964 0.627448 -1.317902 1.598232 0.899191 1.740951 -4.704830 2.166566 0.580818 3.340071 -1.467607 3.356155 -0.385427 3.879913 2.461537 3.609597 1.708223 0.961865 -6.653800 3.194162 -5.655129 -1.090537 -4.395758 3.510643 7.982824 -0.445142 -2.262325 -1.426938 -2.401832 0.339912 -4.950945 -5.176483 -0.269839 1.978813 -2.834142 5.149550 1.980312 1.147921 2.301332 2.954076 -1.576887 -0.623430 1.489264 -2.658875 -2.137149 7.363149 4.032399 -6.171335 -4.323655 1.398605 -1.201193 -4.945257 2.546581 -4.461575 -2.649976 6.422986 2.168217 4.241842 3.271224 -2.626894 2.007493 -3.176887 -2.616067 -0.670356 5.822220 -0.870811 2.509838 -6.246414 -1.184655 -0.204131 1.612658 0.318085 -5.848660 -1.140860 0.437893 5.777860 0.070443 2.582836 2.898740 3.258638 2.977859 0.213067 -2.861703 3.038537 -5.310592 -2.103818 -2.569234 -1.952570 -2.616000 2.893164 3.216438 -2.059172 1.123545 -1.375623 -3.180923 
反 -1.998322 -0.756685 -4.788787 -0.429303 4.057474 -2.050711 2.000715 7.120922 1.129425 2.048293 -1.530896 2.315883 9.035202 -1.178436 0.786394 1.080426 -0.142354 -0.181741 0.024836 -1.307656 2.414594 -0.041197 3.108529 -4.828217 2.094468 5.022703 -0.261966 6.100399 1.749154 -3.395430 -5.164084 6.084606 2.017248 -2.112269 0.399101 -0.052586 -0.397209 -1.126116 -4.094201 -5.592643 3.808017 4.197199 0.485232 -5.199777 -0.691102 1.953325 -5.857013 -0.674507 -0.057445 -0.770534 -0.133884 0.300020 -3.602181 0.491086 2.009809 0.833768 -4.851896 -3.163344 5.910038 2.427625 3.481024 -0.605622 -0.647542 -4.109054 5.918524 -5.149060 0.389058 1.260027 -0.648456 -0.742849 -2.611591 -4.220653 -0.812669 -1.918834 -0.872441 0.857593 0.506932 4.333206 -0.703975 1.180983 0.957260 -4.045596 -2.775180 -2.688158 2.298325 -3.915681 -2.707208 -3.914211 -5.068209 -1.599827 3.709975 -4.103198 -3.157577 -2.106180 3.332976 0.877223 1.279409 -0.788810 3.138874 -0.313169 
大 1.275880 0.636804 -0.549197 -0.599756 2.900363 -3.500115 -1.584240 0.907564 -4.879659 -5.472951 0.391221 4.545532 0.387612 -2.376097 -5.273249 3.427195 0.343074 0.045653 2.517943 -1.927771 5.320206 0.021277 -1.188802 2.963698 1.086412 3.553971 -3.342436 3.956867 -0.779474 4.347082 -0.550119 0.522343 -2.727299 -2.501685 5.912704 1.478928 -3.598840 -0.401764 0.954976 -0.319296 -4.627542 2.209179 -1.801470 0.328395 -2.424394 -1.158680 2.745394 2.445511 2.173815 -2.828408 1.270445 -3.823900 -1.153633 1.841450 -2.986305 0.827031 3.402990 -3.337117 -4.719724 -2.511828 -4.331014 3.047856 -0.124062 -2.050375 2.669034 -0.747426 6.259769 2.792763 -1.467150 1.893700 4.105447 6.389874 -3.998511 0.459983 5.353338 -0.716612 -0.694560 -2.566006 5.886065 -3.242584 -1.816621 -4.564441 7.265720 1.004610 2.634595 -0.347536 0.185879 1.465570 -3.126757 -4.755586 -0.521283 2.061616 -0.681292 -1.518963 -1.557467 -2.317024 -0.134840 2.536570 2.725126 4.921802 
神 -3.246808 8.359678 4.434509 3.664064 -5.232098 -2.844501 3.718965 1.648137 -1.447200 4.541805 -0.762401 -1.244364 3.229331 -0.207861 0.480205 -0.392658 -0.865436 -3.708481 1.028864 3.437688 -2.128452 -1.181423 -0.722727 4.184154 5.606161 -4.054287 3.397421 -0.848305 0.005733 9.548634 -0.239497 4.851282 -0.828630 -2.775202 -0.306883 -1.041543 -2.982749 -1.931700 -0.118311 4.520133 -2.228595 -1.629344 0.554711 1.371548 -1.759930 4.430144 -3.901444 -0.101573 -2.356529 2.404817 -2.291118 2.859924 0.037542 0.914790 1.045401 -2.472402 2.334743 1.425661 -1.362002 5.142484 0.745817 1.688030 -2.391252 -1.005249 1.076753 -4.917267 -1.442460 2.870528 0.108258 -1.312395 -1.766653 -2.998219 1.814738 2.079543 0.450345 -2.772915 3.297582 0.274389 -3.435771 3.149549 -0.548964 -3.152122 -2.421565 10.027354 2.371272 -5.416713 -0.596077 -1.962244 7.693637 6.758327 0.230952 -3.302444 -6.558898 -0.602857 -3.022529 -1.685147 -0.858494 1.324603 3.084638 -1.720922 
症 1.707716 -1.754273 4.106472 -0.152057 0.106959 3.327527 1.995191 6.880380 -0.535191 0.655346 3.539586 3.455117 -0.395825 5.045557 -3.466343 -0.832353 -1.095528 6.120618 -3.117826 -1.880712 6.196169 0.798748 5.420962 1.063348 -2.156004 0.339706 -4.383805 -4.184412 2.745466 2.356207 1.338359 -6.068903 6.142829 0.509300 0.640242 -2.860903 -1.750943 -3.478848 4.675281 4.222311 3.945077 2.671471 -3.723503 1.380485 -1.969103 1.634398 6.555232 0.047558 -0.205804 -3.878265 -2.271358 5.972354 -5.351586 -2.461328 4.636788 2.179981 -0.379469 1.148721 0.300978 -5.317336 -1.908654 0.355056 -1.329076 0.310974 3.233061 -1.702705 -2.005675 5.524314 3.617176 1.915377 1.278315 -0.539819 -2.220200 0.785030 3.095046 2.122227 2.751171 2.400090 -3.795925 -0.279279 5.132811 -2.342442 -3.285040 -1.969350 4.422315 0.787888 -0.162483 -1.764442 0.913980 -1.971510 -0.331593 -5.310740 -3.587938 -3.610097 -0.151711 -3.355184 0.071492 -4.662619 -0.816327 -5.937307 
肺 1.345482 -0.778336 -1.376879 -3.135558 2.153475 -1.455720 0.431730 6.973900 -5.107708 3.958392 0.813637 2.038932 2.952393 -1.759904 4.083862 0.841169 1.701767 3.502002 -0.417059 3.788327 1.416038 0.710863 -0.566927 1.547363 0.007206 -0.683730 -0.691734 1.518088 0.783053 3.899966 6.098406 1.965341 -0.782955 2.543266 -1.165347 2.873473 -0.575974 -2.686373 -7.689310 2.413852 -2.097231 -2.292639 -1.153928 -8.279360 -6.313911 2.884726 -2.514174 -8.262644 -0.525053 -0.171895 0.280550 0.926959 0.776374 2.916136 1.184406 -2.833925 -1.123704 1.063054 1.644669 3.452703 1.065920 1.240715 1.049291 -0.401730 -0.992663 -0.205834 -2.630637 -5.292825 -1.717728 -0.855415 1.205184 -2.453606 0.063366 -0.372983 3.124110 -1.116887 -0.646940 1.524548 0.715347 0.881885 -0.629481 -4.205570 -3.717900 -1.580377 -2.178613 0.595199 2.951112 -1.117935 2.324059 -4.398143 -3.984560 6.346214 4.141188 -0.908704 -6.265343 0.526266 -3.363560 3.795856 -1.426845 6.107408 
肿 -4.975034 -2.985487 4.266582 -1.343697 -2.671250 -1.911549 0.956052 2.417243 -2.649653 4.928063 -8.713269 -0.301057 0.643893 2.028221 -0.339414 -2.764923 -1.751486 2.031542 1.076776 -1.227828 1.683440 3.727592 -7.127589 0.942467 -0.916776 3.657511 -0.926446 0.675048 -0.563815 -3.107763 -0.762660 -0.630749 0.300965 -4.828855 -1.357776 -0.119434 2.438151 -0.787331 2.763969 -0.952307 3.318474 -5.072052 1.601796 0.501725 3.644270 0.661530 -2.714636 4.146618 -1.098023 -4.011217 2.835992 -0.413961 9.337166 -5.736813 4.556944 -3.302921 0.243032 -0.953020 0.999723 -0.023113 -3.036118 -3.669048 -1.048301 1.405812 -2.164413 -0.168757 1.552248 0.303483 3.738726 -3.130761 -0.962159 -1.757592 -3.436922 -2.560847 -0.692748 -1.310451 4.424274 1.584842 0.149683 -4.937496 -0.545050 9.404659 -3.138981 -1.901703 -0.654858 -0.751353 0.484445 -4.164497 -0.522002 7.031998 0.744985 -4.888477 1.915781 3.389708 1.221011 -1.710225 -3.300917 2.172047 -5.930538 2.000461 
力 -0.787841 2.728232 0.674086 -1.630673 -2.929330 -5.123504 5.346122 1.256159 2.267581 2.506185 -4.885418 5.660729 1.269164 -0.282406 0.950351 3.539753 -1.194739 3.305474 5.166898 1.162331 0.416360 -0.459025 -3.428561 0.972598 2.192604 -2.292955 -2.336822 -0.748714 -6.273399 -4.115177 -2.162860 4.259993 4.877102 -0.756618 -3.210467 4.115967 -0.401840 2.806518 -0.816235 1.836812 4.080330 3.183120 4.602673 -1.758674 -0.201351 -4.877224 -5.117972 -0.006694 -3.856436 -0.017989 -4.968036 -3.997929 -3.069070 -1.498321 0.142858 -2.569350 -1.195160 -0.834199 2.111034 2.293781 -0.833018 -5.795899 4.840104 6.996436 1.782578 -0.272657 4.179413 4.324491 0.576583 -1.286391 -1.999552 -0.438811 -1.627831 0.030115 -5.639500 6.466655 0.097766 2.376202 -0.940374 -4.655844 -1.419671 -2.008517 -1.868352 -2.677547 4.191258 -0.439819 -2.020863 6.025036 -1.081485 -4.291894 -0.166764 1.644723 0.191855 0.199926 1.052510 -2.495488 -0.671004 -1.162108 -0.894346 0.999251 
年 3.738033 -1.915005 -0.058701 4.609419 -0.871841 1.279770 1.936956 0.957532 0.019972 -4.031047 1.332080 2.084396 1.433090 2.984105 1.033398 -3.990836 -0.664493 -3.059777 -0.429944 -1.409319 1.335580 -0.456176 1.699050 -3.291879 4.181454 -0.798823 1.533907 -2.952257 -2.577653 -2.108177 -0.528774 0.110920 -2.071604 6.345138 -2.733729 1.612769 -1.366201 0.001667 1.320742 0.667006 1.873231 -4.248691 6.438705 7.982995 -1.938183 -0.771046 2.799392 -4.492728 3.931449 4.834344 -6.350239 -1.173542 1.070331 -4.858904 1.335671 0.351655 4.301783 -0.033444 -2.257478 -3.037935 0.523509 2.291294 -1.013560 -1.827771 3.123307 -3.267541 7.303851 1.364386 -0.947587 -1.604364 1.675421 0.243637 -0.446624 1.578070 -0.445104 3.300745 1.959826 -0.655796 1.183937 2.222445 4.235393 -1.608948 -1.207958 1.902009 1.206682 2.030750 0.900809 -0.191497 -0.797335 0.783332 -1.245963 4.585578 -0.781332 1.033612 -0.886342 1.979119 1.995142 -3.567189 -2.786165 -2.986573 
疗 0.304089 0.580420 0.575702 8.164386 -2.847279 -0.823941 -1.905310 1.814733 2.353603 1.847341 -1.131770 -0.955887 -7.533398 -0.292998 -2.692282 -0.079721 -1.800255 0.899653 -0.697888 2.980096 0.667286 -0.827835 3.768068 -2.460398 -4.551631 1.387947 -2.297537 -0.565608 6.358476 -3.882943 -4.707007 0.734158 -1.693307 -3.767172 0.664960 -2.036359 1.633959 -3.403492 -1.100087 3.652279 0.171740 -2.614889 1.291952 -5.228850 3.019696 0.290201 7.174295 1.769104 -3.753575 -1.471315 -2.836396 1.035657 -1.153662 -0.225183 -0.642571 1.097586 3.871948 -1.806098 -2.132073 -2.395212 -5.484050 -0.179662 -6.354444 -2.033245 -1.996379 2.252159 1.763505 -0.689569 0.179466 5.498928 -6.377157 -2.381491 7.940997 6.359889 -1.910039 -6.441401 2.676149 3.415583 -3.096057 -2.089352 -0.418637 1.630643 -0.457313 -5.178916 0.532639 -2.131182 4.492602 -3.444003 2.054195 -5.669715 -1.933229 0.563026 2.568909 1.407597 1.084468 -3.056538 3.547676 -7.287191 2.349277 -5.025035 
g -3.090363 3.742013 -3.586368 0.422433 3.854640 3.068064 -2.249903 2.704071 -1.229188 0.349879 -7.079980 0.481264 -0.723253 4.214987 2.120155 -6.057398 -2.990879 -1.859962 -3.976342 -3.631359 3.801551 -0.594620 5.394371 6.840806 2.974922 0.083085 -0.669232 3.415733 6.919455 -2.419302 2.927673 1.244271 -6.441639 -1.790181 0.666026 -0.396161 -0.356007 0.974765 5.575873 0.838153 0.086771 1.996352 -0.892855 1.478894 3.691676 2.576320 -3.666788 -2.750522 3.160493 7.358779 -1.462027 1.697942 2.806060 0.411932 -2.958656 -1.143299 6.815511 -1.253641 -4.357380 -1.344211 5.114441 -0.188347 -0.947497 2.846727 -6.966519 0.861721 1.370685 -0.571535 -6.230335 -5.681099 -1.145447 2.401389 1.681183 -0.450875 0.880586 1.065740 -1.703540 4.150917 1.092300 0.690993 -5.537196 -3.425692 -2.581699 0.674624 3.548298 2.304931 -1.004258 2.699928 0.031847 1.675171 -0.827772 1.886284 -2.529889 -5.858304 -6.397530 -0.853555 -1.865529 -3.653986 -1.295699 0.266060 
见 -4.785070 -0.316572 4.671504 -1.246640 0.455180 -2.598988 2.262652 2.892031 -0.525361 -1.386651 7.722787 -0.900555 6.548782 -6.763773 3.580354 -2.044886 -10.160545 0.971282 0.452368 1.266414 0.803899 0.913092 -0.146002 1.954519 -0.370083 1.184750 -1.882774 5.804410 -1.664306 -5.273846 -0.760130 4.012227 4.356541 -2.786795 0.521181 0.324268 -0.157319 -3.082693 0.459002 -2.592668 -1.898537 2.554137 3.878798 5.162269 0.465996 -0.294588 6.342700 -5.991217 2.630005 1.589919 1.373782 2.771207 1.251969 -4.083566 0.115339 -4.014947 1.103935 -1.082502 1.753069 -0.490279 -0.697541 -1.456702 -0.816285 1.812963 -3.641667 -0.987375 -3.618700 -7.478729 -3.042751 -2.679738 0.365954 1.546989 -0.438636 -3.076795 8.553234 -2.019969 7.133988 0.934426 0.442448 -3.181349 -2.718222 -1.061379 -5.814839 5.123209 -2.944945 7.683688 1.078843 -1.052394 -3.201738 3.045772 -2.069727 3.605431 -1.518970 4.653392 0.344931 -2.790273 -3.419673 4.497196 6.811128 -2.361875 
前 1.067157 -5.877284 1.712808 -0.803115 -1.595486 1.083938 -1.879782 -0.735956 -2.349952 -2.258857 -0.705874 -3.879435 -0.096535 -2.434626 -0.603041 5.213496 -1.737581 -4.889545 -3.228149 -0.720116 2.268674 -1.834610 0.639607 1.597484 -1.270004 1.720369 1.411418 -0.466014 -2.496893 5.140739 2.019105 -4.805786 2.804456 0.821452 -2.841923 1.420635 -7.452211 0.942534 -1.156334 -5.497301 1.632121 -5.643580 1.105918 1.667055 -0.114471 2.418077 4.418449 5.214359 -5.138536 1.987939 -0.021015 3.892447 -7.626138 -1.953149 -4.179089 3.101130 -1.316562 -0.150738 3.734402 6.460662 -1.600443 0.173739 -3.932832 2.249247 3.088626 3.836134 1.900766 0.919140 -0.930046 1.312994 6.105173 0.576504 5.053985 -1.549366 1.996285 0.277188 1.757466 -2.368555 1.758937 -4.228014 -0.420617 -0.360228 -1.258947 -1.365686 0.937820 -1.571456 -3.860915 0.114472 -0.065584 2.691453 1.789865 -1.242347 2.996034 -0.651445 0.921435 -4.865052 1.363227 -2.320896 1.201503 2.371763 
清 2.999988 0.847654 -2.234461 -1.196060 0.505882 2.331110 -0.415931 -1.186247 -1.816661 -3.002203 -2.931039 -4.162635 -7.030782 -4.795554 5.942238 -0.528253 -0.375295 0.045177 -1.065144 -2.110389 6.416930 0.726586 0.578780 2.721456 0.360256 1.386618 -5.210277 4.509068 -4.666120 -1.163652 -2.398701 0.695571 -3.600571 1.004567 2.517958 -1.882189 -3.288985 4.036359 -6.351135 3.602057 -1.888067 2.619358 -1.220584 -3.129472 -2.510160 0.746849 1.277470 -2.389946 0.984615 -2.164877 5.277429 -0.403290 2.155032 -0.034544 3.329205 -0.386719 -0.343615 -0.459969 1.498904 -0.801880 1.607209 -5.409896 -0.612534 1.555001 0.995576 -1.809640 -3.420267 -4.085047 -0.768186 0.731165 2.086549 2.580286 -4.833842 0.147461 1.015193 3.163161 4.081332 0.033955 0.346241 2.698510 -3.294938 1.414456 5.939995 -4.215504 3.548256 -0.498395 2.290326 3.024705 -1.352404 9.178936 -0.918271 2.646342 1.810896 -4.871769 -5.186492 0.905811 5.137220 0.978855 -2.573515 1.926511 
检 -4.954257 -0.191581 -2.029971 -1.232238 0.103264 2.419896 -0.022562 -2.753462 2.684022 -3.910058 0.185572 -1.446216 -1.397889 2.440037 -3.378575 -1.169866 2.014400 4.377992 -0.557186 6.466353 3.428751 2.574077 3.478728 2.280553 3.747963 1.906321 6.205466 -1.181630 -1.896088 -0.072548 2.198091 0.398495 5.248141 1.647692 6.628990 1.927027 -2.751288 -2.983338 0.595295 -1.797288 2.736400 -1.440646 -0.442332 -0.042478 -0.343213 1.256053 2.892673 4.571945 3.556511 1.818740 -1.584318 -3.391824 1.168721 -0.109181 -1.695743 -0.733882 0.444561 0.563328 1.960828 -0.506419 3.895363 3.565320 -3.505463 -1.898320 -1.380270 -1.851846 -1.447642 -1.258552 -3.186609 5.667761 -3.630358 3.158854 -2.112559 4.687487 2.007381 -0.749197 -4.034507 4.217330 -0.537943 3.225660 -0.491059 3.395445 -2.244334 3.042038 -4.290493 5.043492 2.045181 3.297414 -0.665935 0.435119 5.227479 -1.847638 4.697237 -5.356844 -2.081074 -0.679310 -6.556886 -1.860276 -0.313928 -2.272547 
7 1.082691 2.291104 -2.291239 0.935903 2.989892 2.974065 2.529466 -0.418120 3.137210 -1.625767 -2.742090 2.458246 -1.224201 0.314666 -0.872878 -2.291779 -0.005169 -3.550385 -2.253041 -0.305314 -0.775249 -1.293163 0.875024 1.067680 -1.286594 1.224084 -0.252267 3.154617 -0.337620 -0.084262 2.159300 -1.608449 1.381913 1.482880 1.238943 2.904849 0.053742 0.011385 1.362285 0.265831 1.001539 0.444734 -1.419791 0.523777 -2.883292 1.290468 -0.774304 1.414314 0.211327 1.001320 3.446183 -0.054694 -0.592314 3.621120 -1.373935 -1.873767 1.560091 4.575150 -0.957224 2.698599 -1.311710 2.239746 -2.074366 1.906568 -0.442918 2.955750 -1.853413 0.724164 -0.340419 -0.809653 -0.374645 1.401086 -1.240973 0.104581 -0.025916 2.031810 0.038289 0.335579 -1.440156 -2.118754 0.269075 -0.855207 2.258769 0.211082 -1.103063 -2.561941 -1.928391 -1.273485 0.037224 2.194123 1.512192 -0.807221 1.425808 -1.442773 -1.797382 3.697459 0.632324 -1.182884 0.804805 0.324221 
T -0.197833 -4.667094 4.353662 -4.167020 -0.709108 3.613121 -2.973202 -1.230531 1.381713 -6.209183 -0.185422 -2.179433 6.082256 5.268139 0.686713 -0.137637 -1.012174 -0.830178 -3.399128 3.189560 1.310601 4.096288 1.573270 -0.085152 -1.301184 5.944157 0.553498 -0.332888 4.137956 -1.632275 -3.914504 0.282293 8.756208 -4.245702 4.701359 0.231959 -0.883241 5.993471 -4.185779 0.846520 -2.151161 -3.894177 0.619021 -2.088777 -4.748919 -7.026073 5.293879 -1.191958 -0.317205 -4.956213 3.926430 -0.452929 2.207870 1.612257 -0.693200 -3.203494 -1.777691 4.715565 -4.325058 4.617457 -5.359503 -1.186682 3.523138 -4.298130 -2.233815 1.960238 -0.747931 -2.680490 0.981438 -3.991951 -0.650988 -0.676202 4.613999 4.903267 3.639747 -0.843806 1.085695 -0.112246 -4.898848 2.556889 2.130192 -6.343494 -1.915692 2.963706 -1.248991 1.365627 0.839489 5.589230 -0.750073 -2.003994 0.136094 -4.076434 -1.999419 -4.160275 -3.060256 0.551766 -4.946453 0.640555 -0.705351 -1.023787 
口 1.957941 1.655113 0.507915 0.568303 -3.915700 0.281419 3.089959 0.629865 -2.764292 4.499280 0.180083 -4.248947 0.667550 3.713515 4.317615 0.417510 0.124466 0.471215 -0.914247 -2.656514 -1.463935 0.438058 -1.674318 -8.457860 -2.774515 -2.375492 -0.569176 3.314747 -1.216192 -3.490989 -0.236078 -0.511142 -4.459176 4.027212 7.688675 -6.973473 -2.290244 0.766076 2.595987 0.766694 1.894211 -0.786295 -4.185459 -1.087879 3.020686 1.554573 -5.251908 -3.381228 2.161062 3.492207 -7.690685 -2.273611 2.600164 2.928775 -3.570003 0.488162 1.088581 -2.969653 1.112219 4.442359 3.136467 -1.331278 -1.525535 -1.735801 -3.113391 5.316714 0.271780 -4.742343 -0.960567 0.993790 1.889387 -2.697070 -2.758263 -0.294468 -1.004848 -0.631487 2.090768 -3.645144 3.513787 -4.639912 1.087127 1.216166 3.704565 -4.636878 2.843042 0.985947 1.942348 -0.527734 1.576288 4.302609 0.403425 -0.979313 -4.908090 -3.802375 -2.839057 -1.422865 2.350190 1.218778 3.356408 -2.804824 
物 0.475910 -2.719298 -2.009750 2.173815 3.907139 -3.336348 -3.073006 -0.935920 0.334068 0.930661 5.167958 2.821284 -1.181640 -1.144524 -2.274599 3.734223 0.879314 1.493098 -1.416988 0.344964 5.894958 -0.797814 3.860240 -2.081469 -3.253447 -1.413203 4.034175 -0.851585 2.724049 0.029846 -2.555539 5.929298 -2.453918 2.768883 3.201813 -5.166474 0.306286 -4.760139 3.158175 -0.919962 1.013282 2.548119 -2.248634 1.048244 -3.364891 -0.759020 0.376793 -1.739186 -4.830396 -1.559399 -4.047667 2.802683 0.130626 3.190938 -0.386840 -0.193196 -5.666014 -0.772065 1.064695 3.327441 -1.221764 -1.030939 -2.678240 2.306891 1.298879 3.521307 -2.238799 -2.276665 -4.129050 -0.807155 6.451336 -3.131204 -0.819923 1.051898 -2.623955 -1.077646 -6.104815 1.258325 -1.862136 -1.862370 3.048182 -2.110046 -1.712055 3.560423 2.882424 0.417281 -0.314224 -2.065992 -1.875024 -6.296149 -2.845784 -0.901362 -0.622314 1.384611 1.755674 3.136964 7.148411 -2.069578 4.066092 -3.391939 
区 2.495144 0.959839 -3.543462 -0.341469 3.337764 0.037870 1.046968 3.139906 -2.776906 -0.801050 1.511199 5.425335 4.457962 -4.149565 0.175877 -2.394933 6.203774 -0.032810 2.875470 5.304358 1.628344 2.394526 1.174803 -2.056178 -4.758400 2.865614 -1.113883 -6.077215 4.754604 -3.255025 1.614737 2.249959 -1.893499 0.539444 -4.166098 -0.418935 6.103809 -2.157086 -3.491977 6.856567 -1.276016 0.675841 -3.022345 -2.322852 1.942759 -4.088143 1.378017 0.076995 6.855562 1.944224 5.018611 -2.605953 0.240664 1.748812 5.412738 -0.111345 3.929383 -1.135591 2.431698 -2.679091 -3.159890 2.797738 2.614831 0.708026 3.540813 -3.057359 -0.737926 -1.867160 -3.252895 -2.969922 1.897891 -1.040368 -5.958256 1.999218 -2.956453 1.931151 -5.348325 -5.465451 -3.410966 -1.836093 -2.560302 0.577389 0.437385 -3.611426 -2.830259 0.571819 2.197061 -2.368657 1.469557 -1.887268 -0.732415 -1.263040 0.699379 -3.521315 -0.572223 4.840308 2.134525 7.023905 0.198672 6.542340 
明 3.741073 3.103853 6.216994 3.570829 0.658795 -0.453094 -1.424985 1.781917 -2.429873 1.293710 3.429460 -3.188261 -2.675501 -2.267248 -1.482156 -5.442735 3.967643 2.406315 -5.383993 6.344144 -2.648884 2.086497 -4.774597 3.315768 -5.313333 -4.115356 7.117932 -4.572785 1.993260 -2.851665 -3.901497 -2.443051 4.853695 -3.564869 -0.236511 3.579449 -0.317459 3.624922 -0.698492 -0.068741 -1.310328 -3.508222 2.819501 -4.369127 -1.784768 4.400300 -4.772707 0.812747 2.835481 -2.791337 -2.229751 2.546284 2.459040 -9.025883 -6.556265 0.591803 -1.469952 -5.965550 1.322548 1.869202 -2.893213 -2.415574 -0.321184 1.982000 2.250753 -1.768232 1.438331 0.043277 -6.328577 -2.971380 3.549933 3.980222 -3.624363 -0.609581 2.297850 3.153989 4.527348 1.432590 3.433522 4.053668 4.184337 -0.389388 1.685911 -3.930196 4.195526 -2.101965 -1.412319 -2.156264 1.832511 -1.584298 -4.414336 -3.969959 1.186899 -3.642313 4.018938 4.464687 -0.198059 0.344414 6.545913 -0.103643 
射 -2.484169 -1.297643 2.324563 -1.710399 0.198742 -1.191915 1.253586 5.919559 5.159996 0.924565 1.358355 -1.627223 -2.206449 -0.010878 -2.292288 3.791549 -2.021260 1.715520 -1.508069 -0.575723 -2.790120 -0.163826 -6.120469 -0.683552 0.133265 0.906116 -5.653173 1.615802 0.275919 -2.764434 3.040158 7.738474 2.257592 -3.699326 -1.944565 -4.196607 -1.979188 -2.798097 -1.694888 8.316345 4.626529 -4.861147 -2.942438 5.379185 6.263384 -2.565042 1.942948 -6.228407 0.937940 -2.819752 2.518238 -6.615142 2.158656 -4.037277 -0.283154 -4.547998 2.395457 -5.561049 -4.150811 -1.972375 -3.605995 2.235618 4.426433 -1.674461 -0.438250 1.616990 3.440469 1.895615 3.225526 -2.282385 0.383292 4.215874 0.416997 -3.165469 -2.168184 8.878160 4.112395 1.977141 -3.904709 0.596619 0.115161 4.148296 -1.427838 2.154629 1.937281 3.718372 -4.913978 4.475490 8.364541 -0.806729 8.577535 0.856393 -5.397759 2.312302 -1.306488 -0.145299 5.468859 -2.040986 1.984603 -1.757360 
闻 -8.054954 -6.998964 -5.017429 3.082856 0.632513 0.150261 -0.020161 3.253311 -3.269209 3.699145 5.709440 6.389208 6.066087 -2.706515 -1.472382 0.589102 -5.205479 -1.776082 -1.581194 3.020118 -5.636915 7.706300 -3.493107 2.453755 -6.234948 2.019809 2.667909 4.680293 1.288753 1.442291 6.003878 2.078135 -1.554564 4.654833 -3.021565 2.405880 0.589182 -2.254661 2.196376 4.387963 0.825044 -2.281615 -3.495493 -2.669583 0.472355 -1.645689 -7.272125 -3.862281 -4.469521 2.628600 0.972343 5.048700 -2.140996 2.760949 7.448616 0.008062 -0.056418 4.217417 1.313467 -7.795602 -6.138634 -0.705828 5.473532 -1.590842 -3.930684 -7.226005 -5.943759 -6.094984 0.771007 -1.733361 -1.169899 5.051164 0.034605 -1.541145 3.198266 -6.682080 5.016146 -0.665523 2.999394 2.869160 1.647405 -0.581024 1.190413 -1.823357 1.733546 4.714524 -10.158465 -0.604387 -3.077328 3.579050 -4.036588 2.090581 8.181612 -1.180938 -2.004357 -1.311486 1.542395 7.947037 7.048951 -3.322056 
对 -3.634351 2.500634 -2.575086 -4.636640 -1.043716 -2.309370 -5.387866 -3.149654 -0.926632 4.744097 2.183594 -4.796929 -7.679363 -1.783007 2.477960 1.086862 4.348528 -11.801743 -0.122868 0.816253 -4.577747 3.053944 -0.150932 -5.828374 3.618713 1.407588 3.309608 1.958898 2.889549 -0.077961 -6.074694 5.384931 -3.644536 0.399549 -2.224737 -3.653491 -4.340784 -2.820265 -5.114148 -2.118457 -2.541128 -2.874235 -1.883106 -0.408959 0.088949 2.159292 -2.646758 -1.184223 -1.437306 -1.525065 1.410911 -1.438132 3.409622 0.245215 -0.551500 -2.985386 -5.687961 -2.880598 -3.628518 4.559235 2.334128 -2.307515 2.395577 0.207233 -2.422795 3.399729 4.437191 -1.397473 -5.989617 -2.762806 -3.140294 4.481412 -0.115942 -0.083772 -3.082037 -7.002738 -3.447242 2.251677 5.418710 2.029525 -3.198438 -2.381867 0.496070 -1.112519 -5.827052 -0.321649 0.018552 -1.896908 5.189453 -3.310847 0.333775 3.550784 4.208995 0.260055 0.032469 -3.994991 1.148172 -0.926360 0.346940 5.204569 
胸 -1.409989 -2.684889 2.012454 -2.289032 0.158139 -1.853317 -5.248785 -0.931569 -0.653438 0.201126 -3.846069 -2.201138 3.959418 1.662294 2.261195 -2.102793 0.470569 4.517453 -2.233278 -1.532117 -3.261764 3.623485 2.132727 0.390294 -2.579177 2.764243 -2.571971 -1.445199 -1.667033 -0.574234 -0.001151 -0.008229 1.586938 0.680832 -1.660086 -1.530175 -0.391893 2.342782 -1.455016 0.591101 -1.308617 1.189526 -0.963596 3.363896 1.087993 -2.201031 -3.455317 -1.016053 7.266155 -0.720224 2.351211 0.647048 1.699769 0.567911 -2.106710 0.967739 -1.769785 -0.818172 9.629263 -0.845172 -0.615324 1.209130 -4.796913 -1.970273 3.984997 -4.714293 -3.309726 2.277231 3.603783 0.689439 2.498981 3.382055 -0.801806 0.699194 1.284728 0.242564 -4.131496 -1.537414 1.364529 -0.061845 -1.460037 -3.770766 -0.284341 -1.712762 0.270773 -0.208094 3.136225 -2.540150 2.206010 -1.857515 -0.748653 2.176304 4.436004 -1.610081 2.849733 -1.023876 -0.850242 2.213919 2.399122 -1.826383 
等 -1.545943 0.796552 -2.626613 1.978225 1.817556 0.196712 -1.506781 2.204216 -0.123546 4.594715 1.483708 0.036695 -4.579971 0.899451 0.244478 -2.080165 0.075510 -2.207266 1.983369 -0.255408 1.553735 0.235259 0.126003 -9.017597 0.349158 3.256721 1.592038 -1.003580 -2.335064 0.792413 -2.187459 3.404199 -2.643694 -0.365613 -1.654009 -0.940910 -0.822239 -0.401960 -1.234564 5.371410 -1.293925 4.661974 -1.007117 -3.976713 -1.539278 4.191598 -0.880013 -5.412461 -3.481134 -2.018164 2.043011 -0.659744 -1.588005 -3.794667 2.532347 2.630665 0.174247 -6.535488 -0.183240 4.299565 -1.180270 0.965875 -5.032727 2.706508 -1.099805 5.260617 1.641851 5.696997 4.919132 -3.570676 0.998436 5.020951 -0.430750 -1.024966 0.684017 7.212380 -2.230604 -1.565727 0.957672 3.236764 -1.092747 -0.764066 -4.731986 1.543817 -2.419647 -2.001945 -1.218693 -2.409698 3.787373 -3.148874 -1.305876 2.367960 -1.286867 1.044223 -0.179229 0.444790 1.853756 0.306624 -1.114001 0.628041 
高 0.728337 1.508817 -3.064598 1.628208 2.928589 1.729854 1.612007 0.809799 -0.699544 0.099422 -2.650173 1.746061 4.892278 -0.543391 -1.671354 -2.373542 3.019497 0.439639 -2.671315 -3.827085 -3.007747 0.703995 -2.453107 -6.628047 -0.317127 -0.133492 -1.569111 -0.988166 -1.624921 0.265528 0.500511 -2.487517 -2.603922 -1.595545 2.555259 2.128483 0.633888 -2.371495 4.760857 3.466222 -2.336328 -3.240744 5.792083 1.181972 2.970257 -0.908727 0.996353 3.791141 -3.434624 1.396539 -1.814031 -1.196402 -4.601610 4.501024 -2.789324 -0.301871 -2.786723 2.614209 -5.389845 2.513935 4.425292 -3.307890 0.773689 6.247456 3.926062 -0.758423 3.359187 -0.125508 -2.771445 0.714945 3.875047 1.096741 1.002313 6.380700 -0.007709 2.757578 5.696423 7.983062 3.292292 0.919301 -3.025215 -2.267268 0.465831 2.819089 -1.886000 0.594166 0.665046 -9.197458 -1.216977 2.628142 1.080395 2.146282 4.889434 2.670026 -5.585188 6.043508 -2.473964 -5.333017 3.057768 -1.325131 
张 -6.371054 2.121937 1.638952 4.415133 2.289499 -3.416893 -3.147548 -1.235866 1.652260 -1.896583 -1.103233 0.727032 3.563560 1.758517 -3.988172 1.076951 2.341251 -2.945433 0.187977 2.848530 -2.537917 1.139815 -4.349903 1.947251 3.048625 4.042895 0.041516 -2.456025 2.031231 -2.556176 1.689455 -0.606731 -4.429109 -2.230084 5.119115 -5.879360 -2.916975 -0.557917 -3.580070 -1.559347 -2.167930 5.385004 -0.067957 -3.002500 2.701561 -3.892882 -4.119633 -0.915489 -1.118960 -4.469215 -3.090806 -8.057563 -1.896683 -0.031609 1.544767 0.844586 -4.538872 -3.262296 -0.814323 -1.167019 -5.782567 1.708248 10.452471 -3.339656 -0.159311 -2.868486 0.230588 1.557081 1.647080 0.397613 3.790250 7.108302 -4.851028 -7.308958 -0.901213 6.455553 -0.020477 3.101745 0.102886 1.901359 -3.728872 2.212076 -1.226365 1.742198 -3.830932 -2.438084 3.504202 -1.955009 -6.547287 3.505699 2.550303 5.403813 -8.670276 3.686025 -0.625598 -0.709296 1.994096 -3.178889 0.229576 -7.571369 
显 -4.218736 -3.185783 -3.756996 -1.988097 -2.376564 -4.099517 0.499701 3.129376 3.061157 -3.211828 -0.565586 -4.929698 6.671969 1.927606 -1.450444 2.374460 -6.086933 -3.010663 5.497674 -3.188647 4.239552 -3.296727 4.078665 -1.025813 5.274075 2.745431 -8.425489 2.206500 -4.707818 2.780191 6.067133 -1.814613 -5.379807 5.508235 -2.786057 -8.585235 -1.904744 -0.364520 -0.351133 -0.896134 1.593040 -2.564177 -2.353655 7.650766 1.258604 -7.170867 3.906637 0.521454 -3.109154 -0.049325 4.826877 -3.764748 1.507911 4.518565 4.337142 0.071198 -0.625652 2.400278 5.676789 1.425549 1.455083 1.581263 -3.637931 -0.386897 -0.457016 -0.315424 -2.530961 -1.070202 2.885878 2.581123 0.816519 -3.583336 -1.418147 3.428783 -5.001695 -3.237175 -1.882492 -1.206602 -3.288203 -3.057696 -4.892625 1.670819 -4.808618 2.084665 -4.374703 -0.966821 3.123162 0.037367 -5.988732 -3.363332 2.812600 1.231972 1.635242 2.814008 -8.113169 -9.131605 0.856403 2.879846 -4.196461 -1.230621 
活 -6.749119 6.864514 -0.118437 -0.488630 -8.561717 -0.065701 -1.306235 -1.006365 -0.923990 0.021955 -0.070192 -5.697168 -2.282200 -6.191116 6.075031 -2.852149 1.975155 2.761118 7.278940 -5.716332 1.905799 -1.251729 -3.250173 8.344702 -1.663608 3.664536 3.940148 -2.908521 -3.270796 0.030706 -5.243284 -0.344002 1.699472 -6.094569 -4.668777 -1.576752 2.766197 2.308403 1.533619 2.186709 -0.264583 -3.592583 0.395673 3.216368 1.760931 -3.564278 2.294063 -1.560491 -6.322563 -1.826191 -7.423237 -1.562840 0.181876 2.495036 5.684901 6.167955 5.246029 3.752506 0.710038 3.678413 7.810257 -3.172006 -0.462458 4.511970 1.233424 -2.205377 -1.152364 5.454386 2.696144 -0.355012 5.229332 6.547340 0.119170 -3.429315 -3.595982 1.045859 5.552826 2.067058 0.365083 -4.500253 2.300965 0.346220 -3.251648 -0.068090 -4.649312 -3.089038 3.397291 -1.146545 -5.962540 -5.413436 1.240985 -0.526107 -4.345400 -0.181462 6.912337 0.900178 3.097357 3.889956 4.178277 -2.300669 
P 1.474937 4.648413 -3.214339 0.219861 4.182428 5.787673 8.571339 5.885302 1.744805 -1.496553 -5.389015 -7.089406 -2.243887 2.957817 1.011437 1.595139 -6.552786 -0.714174 -4.478343 2.164519 -2.902232 -0.988327 1.892691 11.245098 1.957582 -4.132717 4.500933 -1.378042 0.440994 0.877779 -1.041724 0.991454 1.644363 1.574663 3.578735 -3.528843 -0.718715 3.458756 2.121139 0.724949 -1.450554 1.836381 -0.527433 -1.746938 -5.632160 -1.834771 -4.727807 -2.137112 2.583261 -0.983814 -0.080417 2.756638 1.633311 7.348625 -4.253583 -3.083344 0.264626 -1.784359 -3.706288 -0.506582 1.237352 3.602615 -3.952495 0.641628 2.439460 -2.569678 0.034707 4.542172 -4.242046 -5.154082 -4.997062 5.573710 0.706253 0.120999 5.472740 1.184315 -4.375548 -0.540480 -3.248527 -2.855844 2.601646 3.294562 1.943865 0.497484 -5.927979 2.734115 1.947327 4.517239 -1.233946 5.572105 -5.905123 -2.937666 -0.949243 -0.036843 0.652378 -3.768844 3.994873 -1.080205 5.437130 -0.033693 
" 3.515939 -2.416543 1.058806 -2.659218 -0.146576 5.100367 0.574342 -0.123482 0.499797 1.947844 2.319640 -0.316202 -1.623931 -0.156186 1.610890 1.906392 4.979228 -0.519600 -3.471548 0.664077 0.120656 0.800056 -0.034990 -1.741569 -0.938828 -2.434169 1.923951 -0.253564 1.332125 -0.513622 -2.112228 -0.083786 -1.488987 -5.103947 -1.150970 -2.880873 -2.649630 2.879097 0.322255 -2.425891 4.993618 1.595373 5.410936 -1.695369 2.098638 -1.508287 3.561081 5.488269 1.337291 2.636690 2.650279 0.948699 -0.148775 2.105947 2.392832 -3.664575 0.970646 0.375211 0.821713 -1.028136 3.921999 1.175250 3.512265 -0.954516 2.633539 5.017970 -2.185169 -0.394039 2.391421 1.927722 -2.277326 -0.386374 3.421265 1.843872 0.937259 -0.017662 2.724008 -2.919068 -0.030710 2.438171 0.377560 -0.219526 2.613312 1.521895 -0.255168 -0.439096 1.429622 -1.658544 1.214507 -3.636908 0.893215 2.706919 -2.102785 0.070360 0.743634 1.330054 -0.263581 -0.988726 -2.395414 -2.150290 
药 -0.650274 -0.940651 2.394079 5.098825 1.261310 2.609452 -2.354502 0.329740 -0.315508 4.513650 -5.630999 -1.625885 -4.217366 2.457926 -3.245986 3.244625 -2.502167 -0.575243 0.235138 -3.592787 -1.736465 -0.405392 -0.176997 -7.931638 0.150087 1.446418 2.704950 -2.897563 0.415798 3.789054 -5.850690 -3.955878 -0.701969 0.838411 3.152633 -0.025765 -4.014393 3.394848 1.925336 1.284167 -0.735621 0.279736 2.147151 -0.795912 2.282279 2.746278 1.829421 0.186646 1.639517 0.667956 3.201074 -3.525495 -1.923146 -6.235879 3.535769 0.774219 0.511072 3.866369 -7.147276 -7.721712 1.339924 -2.657562 -0.807908 -1.055520 -6.118161 3.551249 -4.240246 -2.018516 -0.836106 5.820946 -6.195354 2.817607 1.166307 -1.601222 -4.090708 0.787672 5.866278 0.152136 -3.417993 -2.573514 1.259271 -3.973251 0.171116 -6.794125 -0.841363 0.160577 0.168274 -5.662393 7.224787 -3.224605 -4.550626 -0.602273 2.074115 -4.392297 -0.008159 -9.393564 0.417721 2.709966 0.966857 -4.023947 
史 -1.846881 0.154515 -4.749635 2.189270 0.090447 0.611430 -3.421001 2.437362 -7.503493 -4.249206 3.183348 -1.440427 0.851851 0.858990 -0.181461 2.977978 -1.299513 -1.236963 -3.218753 -5.720082 0.806245 -3.348262 -0.120584 -7.291802 -2.122882 -1.505264 0.122842 -6.247351 1.411194 1.424393 -2.817081 3.192257 2.899992 0.602709 2.767808 2.808274 -1.185691 0.479313 5.714823 2.522171 3.583016 -5.003862 -2.893416 -0.374839 2.580094 -6.716219 3.611028 4.687879 -0.171333 1.005738 -3.643046 2.571960 -4.766045 0.975809 -0.118642 -0.115797 0.305094 3.796899 -4.621388 -7.215824 5.451520 -0.264195 -0.670885 0.409747 3.156505 4.544736 2.054512 -1.652480 -0.138770 0.844523 -0.023211 -6.884264 -4.117956 0.933462 -1.148023 2.886911 2.885213 2.662814 1.136267 4.517065 1.230585 1.368207 -0.647023 -0.811000 -4.062860 -1.230631 -0.186385 -2.695640 0.806137 6.506502 -4.497250 0.865113 4.040457 0.521866 0.461320 -0.212340 -4.582260 -4.363461 3.711543 6.380698 
状 -0.335984 -0.974501 -3.998580 -1.123948 -4.086828 2.093008 -3.579345 -9.500222 3.859272 -2.006736 -3.763692 -7.224870 0.040080 -2.816116 3.794850 -3.959481 -1.723974 -4.630801 1.222570 -0.527402 -4.870017 -0.976621 0.904870 -0.875528 -1.204722 -0.951416 2.625693 -7.303810 1.203274 -0.597878 -5.719787 0.136472 -5.441238 6.750980 0.345035 -0.876394 -4.959332 -0.083206 -6.121585 -2.639500 -4.096169 -8.361055 1.760751 -0.816952 -0.060581 1.011532 -1.526971 -1.000439 -7.472815 -0.973253 0.052882 -0.500579 0.121402 -3.829911 -5.569416 -0.829035 -1.477237 1.786354 -0.538847 0.673461 1.777758 3.033557 -1.336259 1.350666 0.475633 3.384796 0.882125 -2.013277 -6.252556 -2.077309 -4.591012 0.592292 -1.628019 3.183712 -8.170666 2.560600 -1.866755 -3.478588 5.108776 4.271446 -4.813281 2.098250 5.907911 -2.792657 -0.103496 0.180073 4.461487 -2.220033 0.892102 -0.378862 -0.374922 3.883932 1.877808 2.290432 4.964991 -3.005363 -0.101449 -2.346291 -3.389136 1.584412 
异 2.878987 0.289019 -1.295809 9.362108 -3.748883 4.453954 -0.490485 6.184357 4.689803 -3.957047 -3.615693 -4.595814 5.211784 1.033387 -5.539035 -7.865232 1.189952 -4.829112 0.846263 2.890137 -4.604654 -3.080448 -3.970546 5.618581 4.212759 -0.518012 0.756854 -0.959604 -2.147079 1.856295 4.585552 6.451596 8.938475 -5.944874 4.304519 4.121809 -0.116463 -3.067632 -0.165785 -2.197560 -1.039203 0.722287 -2.664708 -8.307718 -3.171641 0.091718 1.217610 4.119250 1.921638 0.571211 2.216654 2.219754 5.596215 -0.468742 -0.710359 -3.787060 -0.936809 -5.075586 3.696901 -3.064805 3.216896 -6.642105 0.601692 0.145027 1.075834 0.228003 1.598692 -7.252441 0.628578 4.267833 -0.785143 4.425235 -0.172083 -3.524207 -6.902857 3.607066 1.164936 -2.364441 3.646110 -0.535677 -4.062800 5.829834 0.301190 -4.228106 4.675081 -3.857875 3.731568 0.041586 -4.480631 -6.367979 -5.996612 -2.060814 -2.932346 2.116838 -8.809653 3.206653 -7.707057 7.303311 -1.156204 0.139309 
咳 -2.808659 -2.616437 -0.367746 0.190576 0.114243 1.878099 -0.432651 1.590853 -1.201249 1.300748 -0.234075 -2.030346 1.824405 1.462118 -2.502029 -1.927180 -0.377410 0.258868 2.308737 -0.120316 -2.728582 -1.891086 1.114967 -0.235509 -5.170932 1.590575 1.426813 -6.575716 0.735074 5.533692 0.742638 0.092777 1.663118 -0.874646 -3.936052 4.686824 -2.166473 3.665512 2.029145 4.713573 -1.888312 -0.593916 -5.712003 5.607335 0.229613 2.343975 -3.356287 -0.874799 -1.092181 0.124953 -0.620068 0.788170 5.082585 -0.998890 -1.966913 -0.397497 0.423836 1.996830 5.877871 -3.102145 1.204405 -0.057872 1.484031 3.428219 -0.792964 1.898027 1.983549 2.635276 0.887735 0.205935 -1.061591 -4.703220 1.974586 1.265496 1.104025 3.486205 -3.142761 -1.484245 1.500209 1.745696 0.888270 2.776207 -1.958367 0.114854 1.178200 -2.524436 0.747351 -0.521992 -3.080077 0.232573 3.257552 1.306106 1.811959 -3.302166 1.511527 -2.550832 3.910564 -4.337554 -2.221205 -4.216430 
伤 -1.258097 -1.529919 2.050740 -1.411805 -0.297694 -0.097562 -3.950925 3.240551 2.719676 5.185316 -0.538612 2.106434 -0.908976 -2.521855 -1.946375 2.425477 6.886683 7.116028 0.845596 -2.654149 6.005267 -0.959010 -4.109960 4.650150 -0.281181 -3.187212 2.610703 2.576116 -0.574901 -2.386727 1.919237 2.187182 0.427417 0.709294 -2.324770 -3.289679 -1.570971 -4.107177 0.680517 -2.294314 -3.061275 -2.740155 4.251435 6.670936 3.130696 -3.927454 7.638992 7.252412 6.066280 -3.343647 3.307097 -0.426542 0.060112 0.395007 -0.177893 0.033127 4.300258 -2.975084 2.271231 1.481374 -0.321140 -0.219154 0.429492 2.941735 -5.760624 -1.760666 -1.230354 2.997090 1.925524 -0.736491 -5.275490 -2.473487 3.089117 -7.030948 -0.345675 1.645296 -2.499951 -1.788983 5.284101 6.606166 -3.987602 -1.618217 1.750918 -0.887137 1.302592 1.161924 -5.418956 -6.056573 -0.540891 -0.239651 -2.548006 -4.256678 -3.810134 -0.330381 2.999115 0.704149 1.950667 -2.311124 -2.854976 -2.357199 
9 2.137294 3.236194 -1.607538 0.592865 2.211072 2.892812 1.673236 -0.368440 2.265733 -1.762862 -2.928639 2.471358 -0.552767 -0.168823 -0.965702 -3.781168 -0.258281 -3.448625 -3.133118 0.234349 -0.657490 0.108753 2.740108 0.565077 0.489329 1.824092 -0.359830 4.065786 -1.736664 -0.709953 0.981609 -2.617081 0.545366 0.484127 -0.096039 2.331295 1.064300 1.458627 2.374875 -0.829460 1.622265 -0.279725 -0.842907 0.871390 -3.439703 3.476949 0.065455 0.255324 0.678230 1.165425 2.442338 0.696496 -1.266372 3.770108 -2.143369 -0.444209 3.834251 4.733511 -3.094774 1.752807 -0.495299 2.517443 -1.210445 2.134104 -1.702093 2.808809 -1.620513 -0.477255 0.054307 -0.019083 0.328941 2.035642 1.749598 0.009945 -0.965280 2.068694 -0.873988 -0.453551 -1.637414 -1.770846 0.802188 -0.638155 3.183797 0.330486 -1.459153 -2.566163 -1.973712 -0.524673 -0.350817 3.374522 1.447590 -1.001282 0.186188 -1.076074 -1.508545 5.325691 0.720106 -1.807404 -0.510497 0.115118 
小 0.841300 4.983097 -2.523202 1.860263 -3.892784 1.175710 -0.168584 -4.067261 1.185191 1.695125 -2.669708 -1.644337 4.036232 2.509298 -1.866138 -0.284121 -2.675551 -0.934934 -1.692649 -2.331612 -1.098104 1.913196 -2.902461 -4.714625 -0.357895 -6.902795 2.158713 -3.455279 -6.522172 -4.234747 -2.382190 -3.575391 -0.515948 0.764467 -0.429870 -2.111301 -2.656283 -3.998860 -2.312135 -2.578578 1.267067 -6.272664 0.034853 8.067775 -2.751454 3.642417 1.941062 -0.867991 5.470971 -1.877072 -0.907992 -0.920815 5.639131 2.149779 0.033422 6.518018 -4.160081 0.983889 -0.927920 2.332566 1.972345 -6.132062 -4.141612 4.168328 -2.694050 -2.982141 -2.791856 -0.886082 2.250707 -2.909363 -1.291736 0.651538 4.087629 -3.767237 2.029113 0.313018 -0.673832 -1.038023 -4.218096 0.971436 2.055258 -2.257646 -5.008120 -2.220656 0.596589 2.626147 -4.196689 3.364002 -0.393802 -0.600595 4.403218 -2.202751 -1.453389 -2.696249 3.177393 4.453053 -1.040499 -4.778201 -1.256744 3.614543 
好 0.465624 1.960023 1.401127 5.825075 -3.268159 -0.154114 1.037833 4.178680 6.832175 2.573440 2.430658 -6.711239 -6.450819 5.453139 2.814934 3.781895 -7.615386 2.401236 2.400616 1.154155 1.648515 1.954604 3.450983 0.524854 -0.208675 -1.081595 -3.346424 -5.386359 3.911956 2.656372 -0.443920 1.980206 -0.787865 -3.606934 -1.682750 -1.344218 1.441712 0.780668 2.541565 -1.263256 4.646115 2.533767 -3.948716 1.329644 2.199863 3.392981 5.547143 5.455054 -2.591702 -3.593136 1.533545 1.524667 -3.056918 -0.317747 -2.210221 -4.480265 -2.118859 0.022931 5.498261 1.343258 -2.915971 -2.999028 -0.445815 -1.115612 -1.912820 -5.985534 -0.452406 -3.896619 2.195480 -0.401723 4.656171 -2.980801 -6.422295 0.923182 -2.307842 4.576553 -2.206970 4.216527 6.004644 0.630294 2.470986 -4.145842 0.823664 -1.838715 1.147771 0.700400 -1.967863 -6.877429 -4.360805 -0.903397 0.951391 -1.904994 0.974661 -5.456971 0.858888 2.434603 5.469654 -3.665604 -1.597608 3.625657 
理 -1.276149 2.878854 1.036015 2.641021 0.489902 -0.533246 2.379477 3.081690 2.715215 -3.207562 3.169217 -1.876598 -5.508624 -2.442250 0.107303 3.086324 4.618401 2.047280 0.642411 2.462469 -9.962850 1.546825 -3.272326 -5.076147 5.599587 -1.921812 -1.960887 3.760773 -2.132421 6.122740 1.379083 -0.587683 7.097007 -5.503948 -0.890248 -6.020789 2.114092 3.352541 2.521612 -0.446660 0.993659 -0.129322 1.670408 -3.414028 2.097461 4.971623 2.279239 0.856973 -1.740436 4.541710 3.708825 -4.870291 -7.230339 -1.311985 -8.257097 3.429546 -2.215752 -1.412976 -0.166869 -7.375371 -0.187240 -1.981040 -0.533191 -4.742781 -2.018481 -3.909107 4.865345 -3.009604 0.297227 -2.151323 -6.498027 -3.492857 -3.203519 -2.884892 -1.511857 0.978461 1.912289 2.463618 1.292825 1.759803 -6.840435 3.786211 3.637664 3.079509 0.332555 -0.063171 -3.670958 -0.192043 -4.139341 3.312364 0.470057 0.994383 3.396156 3.375325 1.463626 -5.403588 -0.629816 1.268940 -0.638709 -2.072975 
有 -0.601143 -0.734669 2.228662 0.911504 1.813680 2.024162 -2.636011 0.861904 -2.044444 -0.638900 2.158908 0.470289 -0.136049 -1.715264 0.142637 1.469242 -1.115842 -1.032224 3.533066 -1.543691 -2.084059 -2.233408 -1.965109 -1.088587 -3.862436 -3.170290 0.900135 -1.453253 -3.372124 -2.420311 -1.698697 -4.685345 -1.820034 1.154679 -0.523403 3.010973 2.532031 0.113042 0.011131 0.217480 0.746005 -1.776628 -1.584391 1.516676 -0.384831 -2.816962 0.157395 -3.831612 0.393934 -1.860022 0.877743 -2.370834 0.136610 -2.041326 1.595117 1.304743 -4.380960 0.277941 3.543680 -1.044005 0.605318 1.008938 -1.713289 1.570952 -1.274699 0.213422 1.050715 -0.079586 3.711251 0.258941 1.617529 2.952821 1.629819 1.945500 0.319097 -0.056686 -1.055025 -0.529560 4.645978 1.821954 0.301408 3.209638 -6.343637 1.680587 4.163528 -1.354609 0.202424 -2.196518 -4.327856 -0.233240 1.454766 3.469561 -0.845581 -5.496017 3.408141 2.131979 2.457740 -1.132185 -2.660627 -4.540108 
触 -4.774337 -4.299787 -6.558353 -0.435658 -5.301454 -5.658859 -2.852286 1.935021 -0.009962 -0.004978 1.336605 0.901126 3.693351 -4.336626 1.291901 -3.597795 -2.429835 -3.703238 -2.309657 0.132841 0.357219 4.180568 -6.147189 4.205422 -3.180010 -4.051032 -2.297411 6.094307 -1.488935 -2.797596 -0.792012 5.268099 -0.559392 1.848456 0.867511 3.197318 -0.405094 -0.391441 -5.019321 -5.344771 -2.789196 0.845455 -1.037966 -0.607689 6.333210 3.144181 0.000347 -3.753130 -2.466220 -2.735287 0.425614 -3.456183 3.767090 -2.503929 4.033198 5.283073 3.829369 0.206953 -1.067906 -7.684324 -3.543033 2.870416 7.236544 -0.658689 -1.461750 -6.827671 -7.599216 -6.583297 -0.428904 -3.470593 1.125674 2.551258 -5.279941 -2.254451 4.187836 -0.580309 1.587309 -1.943258 2.747794 -1.726497 -1.184176 -3.772167 -5.355912 -2.516463 -0.433049 2.213403 0.546192 -2.806119 -2.472688 1.456209 0.209002 0.638893 -1.018689 8.923566 0.720107 0.821492 -3.058095 -0.067150 2.839572 -1.237571 
断 -0.794852 0.389069 -2.265473 -4.446208 6.565640 1.072747 0.276934 1.270109 -0.405927 -0.624910 0.257929 -4.405510 6.243622 3.557418 -0.320316 1.207333 5.174364 4.469094 -0.109036 -0.292533 0.386102 -3.614063 6.058726 -3.317777 -1.049172 -6.471691 4.043743 -0.057262 -1.128561 -1.409877 4.375383 -5.847622 -0.139545 1.032118 2.848017 3.795668 -1.913926 -2.923232 -1.201610 -0.999780 0.334182 -1.879543 -0.476834 1.074748 -0.758931 -4.839895 3.435357 -1.198543 -7.552134 0.383583 3.102507 11.525330 -3.190532 -0.257268 4.952098 1.572932 8.953430 0.135865 -1.820873 0.571374 -2.899831 0.407657 0.965730 -2.226771 6.574294 -0.828011 -3.176884 -2.235803 2.649045 5.304265 -5.357856 0.182996 -1.954433 6.241652 -1.526450 3.025014 2.436802 4.404079 -1.667351 1.157002 -0.641795 4.529424 0.373022 6.310435 2.958643 1.772101 4.794194 -1.556073 1.359174 1.298766 0.355420 6.918912 -3.918512 1.193740 -2.614300 2.801913 1.106223 2.345167 -0.740674 -2.357571 
H 6.244409 6.746703 -0.696963 1.674762 2.497650 0.758088 4.421879 -6.293380 -7.253630 4.576446 -0.154077 -4.206041 2.611392 4.923542 1.651947 -0.520910 -4.514620 1.220238 -0.471358 -0.372945 -1.505249 -9.185527 0.385984 2.745558 3.717566 4.704730 0.804808 10.732562 -1.543869 -2.124490 0.541013 3.379484 -4.765018 2.273708 0.609871 2.570376 0.728287 5.223874 -1.368819 1.981599 -6.523367 -5.414457 -2.726789 4.460465 0.357658 -0.410288 0.586075 -0.304446 10.769326 0.362334 -5.919649 5.670464 -4.619656 4.344126 3.347561 -10.655797 -4.025959 -5.434032 -2.732625 1.663693 3.103445 -0.357503 4.703207 4.453358 1.814463 -4.905679 5.724077 0.609293 1.078949 2.883155 2.393975 2.285176 0.818012 2.006878 -0.922975 2.013775 -2.919561 -5.244860 -3.393909 -2.347100 -0.068466 2.310426 4.848341 -2.871172 -3.015666 -2.307109 -1.796382 -1.509450 4.290437 6.172017 -3.748319 -1.161021 1.582181 -0.011901 -5.856466 2.791950 1.618315 -2.207650 7.190475 1.244490 
脑 -0.359024 -2.520045 2.669801 -0.421731 5.143657 4.288999 -0.920430 1.249609 3.975920 -2.876767 -1.624397 3.044747 -0.106282 -0.494489 3.580149 0.848847 2.701577 0.617430 -3.190235 -1.020087 -3.101578 0.955323 -2.157501 -7.376176 0.213705 1.756026 3.753953 0.321360 2.318429 5.187692 -1.930437 -2.644509 1.778155 -1.799443 -1.874188 -1.964522 -2.231170 0.345939 -2.489726 3.164760 0.428558 0.469283 -2.799946 2.612457 1.842622 -0.530246 2.375314 4.229390 -0.742672 -2.784160 -4.827020 4.112109 -0.046967 -3.050697 4.672854 0.326522 3.204134 -1.169610 2.418777 3.376611 4.406584 -1.736487 0.251045 -1.539567 -0.792459 0.710507 -1.973549 0.612079 0.477599 -0.634057 1.835009 4.665385 3.601063 5.247316 -2.504083 -1.572060 -1.431662 2.085751 -0.962516 0.213074 -3.769838 -4.034005 3.886756 -0.630544 -1.798413 3.673249 0.137060 1.470325 -2.216036 2.690587 -3.477845 4.252038 0.539591 3.256688 0.698083 3.285930 2.327177 -3.748168 -2.312337 -0.402088 
晕 -0.633706 -4.459216 0.746668 3.166174 -3.823164 -1.982947 -3.975555 8.109411 -0.908069 -1.761459 -2.814515 1.438252 1.798902 -6.895226 -0.656227 -1.830422 -4.372039 -1.918742 3.783005 -5.264093 3.522005 -2.395176 1.049369 1.165186 -5.917881 -0.102866 -0.034872 -2.341815 -1.351880 -4.938932 -5.350716 3.001086 -0.140018 2.652127 1.621590 -0.393096 -4.672500 6.967803 0.400397 -0.986751 -6.655601 -3.784860 0.631232 3.479841 3.798318 -0.282403 -3.040091 1.698042 2.398446 -4.792812 0.656352 4.080400 -1.085935 -6.134440 -3.253380 1.816547 1.846205 -4.276906 3.374384 1.615345 3.934122 1.558720 2.041123 -2.931098 3.256425 -2.159442 -5.188096 6.923059 -0.185057 2.622203 -4.160204 -3.561393 -0.087198 7.454409 -2.771448 1.414508 -3.757571 -3.169011 3.793804 -2.197016 0.982730 1.790114 -3.340210 5.534947 1.754003 -5.991621 -8.978961 2.274794 -0.301554 -0.373937 1.733187 -6.828500 -2.000504 -6.148602 0.389943 0.260247 2.759363 2.052187 -3.193221 -4.388882 
律 1.881602 5.873814 -3.047791 7.651968 4.450154 2.642640 0.630457 5.853086 -2.098942 -4.915167 1.885182 3.355638 -1.342116 -7.693502 -0.663239 2.661165 -4.109561 2.895579 1.954701 2.706878 -3.609662 0.577679 -1.293262 3.513959 -6.794002 -3.461498 -4.465169 5.179302 0.449873 2.466387 4.020333 0.601846 -1.409713 -0.541461 4.834188 -3.663941 -1.167006 -2.503948 0.625919 1.757127 3.924074 0.479277 -0.304954 -3.362950 -0.160551 -1.299601 -5.978207 -1.731375 -0.628176 8.921638 2.064576 5.149031 -1.435548 -1.699589 1.160205 4.761348 2.017229 2.311008 3.275713 5.301206 -5.178218 2.487989 -1.808972 3.279457 -2.645840 0.349193 4.842733 2.993988 2.984725 1.183481 -0.185328 4.472017 3.605864 -2.384138 0.791069 -2.474712 -6.714413 -1.126318 -2.199245 -3.350180 -3.730429 1.253628 2.236731 -2.242772 -1.119169 3.563637 -5.081324 4.779669 -4.074639 2.195885 -1.100000 -2.558400 2.886569 3.564103 0.830532 4.372931 -0.622356 -4.610893 1.740860 5.588220 
中 -2.479406 0.571351 0.520155 -2.458422 2.607794 -1.290379 -2.601865 2.054400 -1.628779 -5.474856 -2.779741 2.687312 2.974299 -2.170660 -0.355823 -0.616408 4.249197 -0.722961 -0.600985 -0.383518 -0.243271 -0.790302 1.500213 3.321733 -0.748346 -3.717634 -3.658069 -0.742019 2.618689 3.286644 0.028462 0.495905 2.679908 -2.632060 2.093425 -0.728824 -3.586742 -3.455472 1.821468 -5.771031 1.899591 -2.738474 -3.980089 0.338092 -1.980415 -3.418599 1.171593 0.357048 0.645233 -1.662783 -0.934924 -0.072480 -2.649404 5.327009 0.373303 -2.054998 -0.879857 -1.736491 2.001898 -0.460404 0.392469 -1.911460 -0.047427 0.991785 -2.080691 3.808557 -0.695678 2.063553 -1.215188 0.632132 0.357467 0.643242 -3.387723 0.307522 -2.341439 -5.431587 -0.577689 2.705137 1.484899 -1.841154 -0.305319 -0.433956 0.158429 -1.237657 1.002181 1.163805 2.194491 -0.129743 3.518760 0.382939 5.490368 -0.348030 4.738891 3.699827 -0.943266 5.772288 0.788754 -1.286742 1.127028 4.354519 
